{"learner":{"attributes":{"scikit_learn":"{\"_estimator_type\": \"regressor\"}"},"feature_names":["temperature_2m_mean","precipitation_sum","wind_speed_10m_max","wind_direction_10m_dominant"],"feature_types":["float","float","float","float"],"gradient_booster":{"model":{"gbtree_model_param":{"num_parallel_tree":"1","num_trees":"100"},"iteration_indptr":[0,1,2,3,4,5,6,7,8,9,10,11,12,13,14,15,16,17,18,19,20,21,22,23,24,25,26,27,28,29,30,31,32,33,34,35,36,37,38,39,40,41,42,43,44,45,46,47,48,49,50,51,52,53,54,55,56,57,58,59,60,61,62,63,64,65,66,67,68,69,70,71,72,73,74,75,76,77,78,79,80,81,82,83,84,85,86,87,88,89,90,91,92,93,94,95,96,97,98,99,100],"tree_info":[0,0,0,0,0,0,0,0,0,0,0,0,0,0,0,0,0,0,0,0,0,0,0,0,0,0,0,0,0,0,0,0,0,0,0,0,0,0,0,0,0,0,0,0,0,0,0,0,0,0,0,0,0,0,0,0,0,0,0,0,0,0,0,0,0,0,0,0,0,0,0,0,0,0,0,0,0,0,0,0,0,0,0,0,0,0,0,0,0,0,0,0,0,0,0,0,0,0,0,0],"trees":[{"base_weights":[-8.513488E-7,5.540286E0,-4.6150923E0,1.1435553E1,2.2376459E0,-5.183427E0,1.44476185E1,7.474671E0,2.1976604E1,7.917037E-1,1.5382463E1,-3.0370874E0,-8.179811E0,-6.734705E-2,1.5511661E1,6.2911043E0,2.4329445E1,3.9838436E1,1.40993185E1,4.003401E1,3.0795416E-1,1.6299057E1,-1.2673471E0,-1.2676423E0,-6.955103E0,-9.969186E0,-3.2088199E0,4.998744E0,8.2652956E-2,9.21034E0,-7.474497E-1,7.937755E0,1.732653E0,2.1258497E0,1.9941692E1,3.1156462E1,6.480519E0,3.082653E0,1.4932653E1,1.2597209E0,-3.9501143E0,8.489796E0,1.9298185E1,-3.4453E0,2.0691319E0,-8.805814E0,-1.7910212E0,-1.10566435E1,-7.811036E0,-5.068744E0,6.7991334E-1,4.474095E-1,3.912E0,-8.263122E-1,3.1922448E0,-1.1510206E0,2.810204E0,5.1020396E-1,1.1798834E1,6.5522447E0,5.5612224E-1,1.7664951E-1,8.2322445E0,-1.9051315E0,1.2139144E0,3.732245E0,8.522448E-1,1.710204E0,6.1924744E0,-1.2420272E0,4.092245E0,1.5233557E0,-1.2074832E0,-2.9283793E0,-1.3679304E0,2.3136053E0,-2.0150063E0,-2.6631165E0,-3.722027E0,1.0203933E-2,-2.4340272E0,-1.6836737E0,-1.0775528E-1,-1.0553573E0,1.0265304E0],"categories":[],"categories_nodes":[],"categories_segments":[],"categories_sizes":[],"default_left":[0,0,0,0,0,0,0,0,0,0,0,0,0,0,0,0,0,0,0,0,0,0,0,0,0,0,0,0,0,0,0,0,0,0,0,0,0,0,0,0,0,0,0,0,0,0,0,0,0,0,0,0,0,0,0,0,0,0,0,0,0,0,0,0,0,0,0,0,0,0,0,0,0,0,0,0,0,0,0,0,0,0,0,0,0],"id":0,"left_children":[1,3,5,7,9,11,13,15,17,19,21,23,25,-1,27,29,31,33,35,37,39,41,-1,43,45,47,49,-1,-1,51,53,-1,-1,55,-1,57,59,-1,-1,61,63,65,67,69,71,73,75,77,79,81,83,-1,-1,-1,-1,-1,-1,-1,-1,-1,-1,-1,-1,-1,-1,-1,-1,-1,-1,-1,-1,-1,-1,-1,-1,-1,-1,-1,-1,-1,-1,-1,-1,-1,-1],"loss_changes":[2.3855812E4,8.229669E3,5.5893926E3,6.1820137E3,5.1766357E3,3.158629E3,2.3765845E2,2.0812017E3,5.207117E3,4.676583E3,5.5408887E2,2.0016707E3,1.800374E3,0E0,2.4088599E2,2.1848867E3,1.2378955E2,1.1911875E4,3.6967383E3,3.582085E2,9.978846E2,4.4510742E2,0E0,1.4676655E3,8.443784E2,2.6801758E2,4.084803E2,0E0,0E0,2.1976313E3,7.6068115E2,0E0,0E0,2.9500827E2,0E0,2.099787E3,1.5230237E3,0E0,0E0,3.5143298E3,8.8943445E2,1.6553107E2,2.1113184E2,1.5047693E3,1.4872678E3,2.2324512E2,1.222019E3,1.7824805E2,1.2837671E2,9.5250916E1,2.3072119E2,0E0,0E0,0E0,0E0,0E0,0E0,0E0,0E0,0E0,0E0,0E0,0E0,0E0,0E0,0E0,0E0,0E0,0E0,0E0,0E0,0E0,0E0,0E0,0E0,0E0,0E0,0E0,0E0,0E0,0E0,0E0,0E0,0E0,0E0],"parents":[2147483647,0,0,1,1,2,2,3,3,4,4,5,5,6,6,7,7,8,8,9,9,10,10,11,11,12,12,14,14,15,15,16,16,17,17,18,18,19,19,20,20,21,21,23,23,24,24,25,25,26,26,29,29,30,30,33,33,35,35,36,36,39,39,40,40,41,41,42,42,43,43,44,44,45,45,46,46,47,47,48,48,49,49,50,50],"right_children":[2,4,6,8,10,12,14,16,18,20,22,24,26,-1,28,30,32,34,36,38,40,42,-1,44,46,48,50,-1,-1,52,54,-1,-1,56,-1,58,60,-1,-1,62,64,66,68,70,72,74,76,78,80,82,84,-1,-1,-1,-1,-1,-1,-1,-1,-1,-1,-1,-1,-1,-1,-1,-1,-1,-1,-1,-1,-1,-1,-1,-1,-1,-1,-1,-1,-1,-1,-1,-1,-1,-1],"split_conditions":[3E-1,1.4512064E1,1.6741167E1,3.0025635E2,1.6249498E1,2.8000002E0,9.605998E0,1.7887E1,1.0440001E1,1.1892635E2,2E-1,2.2734219E1,1.2095333E1,-6.734705E-2,3.066101E2,5.1099167E0,2E-1,-1.1521333E1,-7.2400837E0,-5.7775836E0,2.4395811E1,1.7143251E1,-1.2673471E0,2.1322314E2,2.95551E1,2.8974164E0,1.4564083E1,4.998744E0,8.2652956E-2,-7.3400846E0,1.3896187E1,7.937755E0,1.732653E0,-1.1967167E1,1.9941692E1,1.1113451E1,3.0519757E2,3.082653E0,1.4932653E1,2.3966375E1,3.0802622E1,1.6337E1,1.473482E2,2.2571884E1,5.9057503E0,3.0077008E2,7E-1,1.7902534E1,3.2890832E0,3.2472842E2,5.1000004E0,4.474095E-1,3.912E0,-8.263122E-1,3.1922448E0,-1.1510206E0,2.810204E0,5.1020396E-1,1.1798834E1,6.5522447E0,5.5612224E-1,1.7664951E-1,8.2322445E0,-1.9051315E0,1.2139144E0,3.732245E0,8.522448E-1,1.710204E0,6.1924744E0,-1.2420272E0,4.092245E0,1.5233557E0,-1.2074832E0,-2.9283793E0,-1.3679304E0,2.3136053E0,-2.0150063E0,-2.6631165E0,-3.722027E0,1.0203933E-2,-2.4340272E0,-1.6836737E0,-1.0775528E-1,-1.0553573E0,1.0265304E0],"split_indices":[1,2,0,3,0,1,2,0,2,3,1,2,0,0,3,0,1,0,0,0,2,0,0,3,2,0,0,0,0,0,2,0,0,0,0,2,3,0,0,2,2,0,3,2,0,3,1,2,0,3,1,0,0,0,0,0,0,0,0,0,0,0,0,0,0,0,0,0,0,0,0,0,0,0,0,0,0,0,0,0,0,0,0,0,0],"split_type":[0,0,0,0,0,0,0,0,0,0,0,0,0,0,0,0,0,0,0,0,0,0,0,0,0,0,0,0,0,0,0,0,0,0,0,0,0,0,0,0,0,0,0,0,0,0,0,0,0,0,0,0,0,0,0,0,0,0,0,0,0,0,0,0,0,0,0,0,0,0,0,0,0,0,0,0,0,0,0,0,0,0,0,0,0],"sum_hessian":[9.31E2,4.23E2,5.08E2,1.51E2,2.72E2,4.94E2,1.4E1,1.11E2,4E1,2.46E2,2.6E1,2.89E2,2.05E2,1E0,1.3E1,1.05E2,6E0,1.1E1,2.9E1,2E0,2.44E2,2.5E1,1E0,2E2,8.9E1,1.5E2,5.5E1,1.2E1,1E0,7.4E1,3.1E1,5E0,1E0,5E0,6E0,8E0,2.1E1,1E0,1E0,2E2,4.4E1,8E0,1.7E1,1.21E2,7.9E1,6.5E1,2.4E1,9.7E1,5.3E1,3.7E1,1.8E1,2.5E1,4.9E1,2.7E1,4E0,3E0,2E0,2E0,6E0,4E0,1.7E1,1.96E2,4E0,3.4E1,1E1,4E0,4E0,2E0,1.5E1,1.17E2,4E0,5.3E1,2.6E1,5.2E1,1.3E1,8E0,1.6E1,4E1,5.7E1,2E0,5.1E1,3.3E1,4E0,7E0,1.1E1],"tree_param":{"num_deleted":"0","num_feature":"4","num_nodes":"85","size_leaf_vector":"1"}},{"base_weights":[9.433444E-2,4.9938836E0,-2.6890972E0,9.428564E0,2.6948562E0,-3.293386E0,1.2482489E1,1.3010766E1,2.64579E0,1.8813632E0,1.1900311E1,-1.8938918E0,-5.777466E0,1.9397945E1,9.483865E0,9.403509E0,3.8419144E1,-4.093808E-1,2.053585E1,1.3613651E1,1.2793214E0,-7.653237E-4,1.260063E1,3.0910225E0,-2.6512885E0,-7.0367675E0,-2.2786787E0,1.5919896E0,6.346465E0,3.8333097E0,4.770286E0,5.5536885E0,1.9575039E1,2.0989326E1,1.0985768E1,-7.3604007E0,2.1802332E0,6.7929797E0,1.4998164E0,9.670585E-1,3.2341774E1,-4.9967713E0,2.092224E0,1.3699574E1,8.717091E-1,-9.927151E-1,1.7288727E1,-3.0752819E0,3.5320108E0,-8.101459E0,-5.7230105E0,-3.5952635E0,4.7442156E-1,-1.3629358E0,8.080276E0,-2.786532E0,2.0096054E0,1.2093365E1,3.2313135E0,-1.3562207E0,8.3997555E0,-2.3327115E0,-5.434001E-1,3.305933E0,-9.889587E-2,-1.934639E0,3.901339E0,1.1999273E1,1.4061556E0,-1.8997613E0,1.8057549E0,3.24357E0,3.4580457E-1,1.3681633E0,4.42643E0,5.218957E0,-5.803337E-1,1.2265376E1,9.9891156E-1,-6.4909774E-1,-1.4969826E0,3.0927193E0,-1.0698402E0,-1.1897181E0,-2.5884302E0,4.3821206E0,-1.8666339E0,-1.1934274E0,-8.189392E-2,-7.7832615E-1,7.442343E-1,7.428825E-1,3.4992623E0],"categories":[],"categories_nodes":[],"categories_segments":[],"categories_sizes":[],"default_left":[0,0,0,0,0,0,0,0,0,0,0,0,0,0,0,0,0,0,0,0,0,0,0,0,0,0,0,0,0,0,0,0,0,0,0,0,0,0,0,0,0,0,0,0,0,0,0,0,0,0,0,0,0,0,0,0,0,0,0,0,0,0,0,0,0,0,0,0,0,0,0,0,0,0,0,0,0,0,0,0,0,0,0,0,0,0,0,0,0,0,0,0,0],"id":1,"left_children":[1,3,5,7,9,11,13,15,17,19,21,23,25,27,29,31,33,35,37,39,41,-1,43,45,47,49,51,-1,-1,-1,53,55,57,-1,59,61,63,-1,-1,65,67,69,71,73,-1,75,77,79,81,83,85,87,89,-1,91,-1,-1,-1,-1,-1,-1,-1,-1,-1,-1,-1,-1,-1,-1,-1,-1,-1,-1,-1,-1,-1,-1,-1,-1,-1,-1,-1,-1,-1,-1,-1,-1,-1,-1,-1,-1,-1,-1],"loss_changes":[1.2723636E4,3.4206543E3,5.4960786E3,2.7597617E3,1.6550515E3,1.9810674E3,2.9298022E2,6.5128145E3,2.249352E3,1.4446924E3,1.5007642E2,1.3976001E3,8.9160693E2,3.628418E1,2.1851013E2,2.5149106E3,7.0199277E3,6.6406396E2,8.324829E1,2.3371934E3,1.02062085E3,0E0,1.413147E2,2.858168E3,8.497988E2,1.648457E2,2.046883E2,0E0,0E0,0E0,3.141551E2,9.119292E2,2.8519062E3,0E0,1.7094885E3,8.96106E0,6.026614E2,0E0,0E0,7.0873663E2,6.59396E2,3.765558E2,1.4294176E3,7.736182E1,0E0,7.090432E2,3.4869924E3,5.128374E2,1.046958E3,1.4220557E2,8.113086E2,4.7244873E1,1.2342299E2,0E0,1.1170676E2,0E0,0E0,0E0,0E0,0E0,0E0,0E0,0E0,0E0,0E0,0E0,0E0,0E0,0E0,0E0,0E0,0E0,0E0,0E0,0E0,0E0,0E0,0E0,0E0,0E0,0E0,0E0,0E0,0E0,0E0,0E0,0E0,0E0,0E0,0E0,0E0,0E0,0E0],"parents":[2147483647,0,0,1,1,2,2,3,3,4,4,5,5,6,6,7,7,8,8,9,9,10,10,11,11,12,12,13,13,14,14,15,15,16,16,17,17,18,18,19,19,20,20,22,22,23,23,24,24,25,25,26,26,30,30,31,31,32,32,34,34,35,35,36,36,39,39,40,40,41,41,42,42,43,43,45,45,46,46,47,47,48,48,49,49,50,50,51,51,52,52,54,54],"right_children":[2,4,6,8,10,12,14,16,18,20,22,24,26,28,30,32,34,36,38,40,42,-1,44,46,48,50,52,-1,-1,-1,54,56,58,-1,60,62,64,-1,-1,66,68,70,72,74,-1,76,78,80,82,84,86,88,90,-1,92,-1,-1,-1,-1,-1,-1,-1,-1,-1,-1,-1,-1,-1,-1,-1,-1,-1,-1,-1,-1,-1,-1,-1,-1,-1,-1,-1,-1,-1,-1,-1,-1,-1,-1,-1,-1,-1,-1],"split_conditions":[1E-1,1.3910169E1,1.6741167E1,4.5119996E0,1.7143251E1,2.8000002E0,2E-1,8.724167E-1,1.7887E1,1.359474E2,1.4168641E1,1.1928989E1,1.2095333E1,1.2224107E1,1.6047444E2,1.2661564E1,3.0869997E0,1.7303134E2,1.9284918E1,1.5683774E1,1.7168198E2,-7.653237E-4,1.8903427E1,2.962067E2,2.3999999E0,1.5140833E0,1.4564083E1,1.5919896E0,6.346465E0,3.8333097E0,1.7484317E2,2.452086E1,1.4568854E2,2.0989326E1,2.9126678E2,1.5832832E1,1.0691453E1,6.7929797E0,1.4998164E0,4.390833E-1,2.8120003E0,1.6249498E1,1.7767099E2,1.473482E2,8.717091E-1,1.138914E1,3.101051E2,2.2956175E1,2.2461807E1,-6.8650837E0,1.5703331E0,3.2472842E2,5.1000004E0,-1.3629358E0,1.0000001E0,-2.786532E0,2.0096054E0,1.2093365E1,3.2313135E0,-1.3562207E0,8.3997555E0,-2.3327115E0,-5.434001E-1,3.305933E0,-9.889587E-2,-1.934639E0,3.901339E0,1.1999273E1,1.4061556E0,-1.8997613E0,1.8057549E0,3.24357E0,3.4580457E-1,1.3681633E0,4.42643E0,5.218957E0,-5.803337E-1,1.2265376E1,9.9891156E-1,-6.4909774E-1,-1.4969826E0,3.0927193E0,-1.0698402E0,-1.1897181E0,-2.5884302E0,4.3821206E0,-1.8666339E0,-1.1934274E0,-8.189392E-2,-7.7832615E-1,7.442343E-1,7.428825E-1,3.4992623E0],"split_indices":[1,2,0,0,0,1,1,0,0,3,2,2,0,2,3,2,0,3,0,2,3,0,2,3,1,0,0,0,0,0,3,3,3,0,3,0,2,0,0,0,0,0,3,3,0,3,3,2,2,0,0,3,1,0,1,0,0,0,0,0,0,0,0,0,0,0,0,0,0,0,0,0,0,0,0,0,0,0,0,0,0,0,0,0,0,0,0,0,0,0,0,0,0],"split_type":[0,0,0,0,0,0,0,0,0,0,0,0,0,0,0,0,0,0,0,0,0,0,0,0,0,0,0,0,0,0,0,0,0,0,0,0,0,0,0,0,0,0,0,0,0,0,0,0,0,0,0,0,0,0,0,0,0,0,0,0,0,0,0,0,0,0,0,0,0,0,0,0,0,0,0,0,0,0,0,0,0,0,0,0,0,0,0,0,0,0,0,0,0],"sum_hessian":[9.31E2,3.37E2,5.94E2,1.14E2,2.23E2,5.72E2,2.2E1,7.4E1,4E1,2.06E2,1.7E1,3.67E2,2.05E2,5E0,1.7E1,6.6E1,8E0,3.5E1,5E0,9E0,1.97E2,1E0,1.6E1,4.8E1,3.19E2,1.5E2,5.5E1,1E0,4E0,9E0,8E0,4.9E1,1.7E1,3E0,5E0,9E0,2.6E1,4E0,1E0,6E0,3E0,2.2E1,1.75E2,1.4E1,2E0,3.8E1,1E1,2.99E2,2E1,8E1,7E1,3.7E1,1.8E1,2E0,6E0,3E0,4.6E1,4E0,1.3E1,3E0,2E0,8E0,1E0,5E0,2.1E1,4E0,2E0,2E0,1E0,2E1,2E0,1.6E1,1.59E2,2E0,1.2E1,1E0,3.7E1,3E0,7E0,2.04E2,9.5E1,1E1,1E1,1E1,7E1,1E0,6.9E1,3.3E1,4E0,7E0,1.1E1,3E0,3E0],"tree_param":{"num_deleted":"0","num_feature":"4","num_nodes":"93","size_leaf_vector":"1"}},{"base_weights":[1.8040751E-1,2.8507943E0,-2.6495395E0,5.9387536E0,1.1993929E0,-3.1826463E0,3.6140194E0,3.6759124E0,1.3031377E1,2.4379534E1,8.216507E-1,-4.1944237E0,-1.9225224E0,1.6694219E0,6.5505714E0,-7.9006476E0,4.310011E0,2.592623E1,6.579074E0,2.5559611E0,9.633806E0,1.23966254E-1,8.129826E0,3.5060072E0,-4.314284E0,3.292593E0,-2.5629683E0,3.4259799E0,-5.5827594E-1,3.4938962E0,3.0131469E0,-2.6112635E0,-4.6189013E-1,-3.028174E0,5.3670287E0,1.53685465E1,8.9887295E0,-1.870807E0,8.974758E0,2.1986446E0,-1.9957335E0,1.2683066E1,5.545142E0,-3.4090352E0,-6.334723E0,7.6048503E0,-1.3189908E0,6.9711175E0,-2.8981924E0,8.6598283E-1,4.467536E0,2.1937084E0,-2.4442253E0,-1.6209545E0,6.3214808E0,-1.9102905E0,1.6776499E0,1.3849865E0,4.2228737E0,8.800769E0,-3.0467665E-1,4.836174E0,8.157393E-1,-4.4663516E-1,2.8134375E0,4.652586E-2,-1.8111517E0,7.089787E-2,4.2628107E0,-1.5541579E0,2.9237328E0,-1.2854674E0,2.1761206E-1,1.0815525E0,-2.0040271E0,5.8535285E0,2.1023652E-1,-1.8421645E0,1.7084962E0,-1.6461762E0,4.3716354E0,-6.0004646E-1,-1.631332E0,3.5605088E-1,7.694054E-2,-2.4399291E-1,1.5687916E0,1.0894799E0,-5.3367835E-1,-1.1944916E0,1.0170382E0,-1.3990307E-1,-7.6271814E-1,2.6771984E0,8.3676773E-1],"categories":[],"categories_nodes":[],"categories_segments":[],"categories_sizes":[],"default_left":[0,0,0,0,0,0,0,0,0,0,0,0,0,0,0,0,0,0,0,0,0,0,0,0,0,0,0,0,0,0,0,0,0,0,0,0,0,0,0,0,0,0,0,0,0,0,0,0,0,0,0,0,0,0,0,0,0,0,0,0,0,0,0,0,0,0,0,0,0,0,0,0,0,0,0,0,0,0,0,0,0,0,0,0,0,0,0,0,0,0,0,0,0,0,0],"id":2,"left_children":[1,3,5,7,9,11,13,15,17,19,21,23,25,27,29,31,33,35,37,-1,-1,39,41,-1,43,45,47,49,51,53,-1,-1,-1,55,57,-1,59,-1,61,63,65,67,69,71,73,75,77,79,81,83,85,87,89,91,93,-1,-1,-1,-1,-1,-1,-1,-1,-1,-1,-1,-1,-1,-1,-1,-1,-1,-1,-1,-1,-1,-1,-1,-1,-1,-1,-1,-1,-1,-1,-1,-1,-1,-1,-1,-1,-1,-1,-1,-1],"loss_changes":[7.050727E3,2.4406182E3,1.524135E3,2.6323604E3,2.7293896E3,5.248716E2,1.9463913E2,9.736587E2,3.1574893E3,3.3963013E2,1.5796201E3,4.9013086E2,6.3635864E2,9.19135E1,1.1439612E2,2.2379028E1,9.625571E2,5.1107617E3,9.155925E2,0E0,0E0,1.2533335E3,2.474253E2,0E0,3.990747E2,4.276438E2,5.571411E2,3.0794144E1,6.2453056E1,1.4041089E2,0E0,0E0,0E0,4.9620544E2,6.343098E2,0E0,1.8618286E3,0E0,1.029004E3,3.826192E3,1.2265656E3,1.6761926E2,9.065256E2,5.861127E2,2.6438696E2,8.905929E2,4.069716E2,6.481373E2,3.608678E2,6.7343783E-1,4.045813E1,3.5021446E1,7.6286934E1,3.0699854E0,3.0265427E1,0E0,0E0,0E0,0E0,0E0,0E0,0E0,0E0,0E0,0E0,0E0,0E0,0E0,0E0,0E0,0E0,0E0,0E0,0E0,0E0,0E0,0E0,0E0,0E0,0E0,0E0,0E0,0E0,0E0,0E0,0E0,0E0,0E0,0E0,0E0,0E0,0E0,0E0,0E0,0E0],"parents":[2147483647,0,0,1,1,2,2,3,3,4,4,5,5,6,6,7,7,8,8,9,9,10,10,11,11,12,12,13,13,14,14,15,15,16,16,17,17,18,18,21,21,22,22,24,24,25,25,26,26,27,27,28,28,29,29,33,33,34,34,36,36,38,38,39,39,40,40,41,41,42,42,43,43,44,44,45,45,46,46,47,47,48,48,49,49,50,50,51,51,52,52,53,53,54,54],"right_children":[2,4,6,8,10,12,14,16,18,20,22,24,26,28,30,32,34,36,38,-1,-1,40,42,-1,44,46,48,50,52,54,-1,-1,-1,56,58,-1,60,-1,62,64,66,68,70,72,74,76,78,80,82,84,86,88,90,92,94,-1,-1,-1,-1,-1,-1,-1,-1,-1,-1,-1,-1,-1,-1,-1,-1,-1,-1,-1,-1,-1,-1,-1,-1,-1,-1,-1,-1,-1,-1,-1,-1,-1,-1,-1,-1,-1,-1,-1,-1],"split_conditions":[5E-1,1.4512064E1,1.5120332E1,3.0446002E2,1.1892635E2,2.17875E2,1.6741167E1,3.792367E1,3.141314E2,-5.7775836E0,1.6249498E1,8.12197E0,1.4168641E1,1.6191138E2,2.8999999E0,4.3661666E0,9.360001E0,1.1113451E1,-1.1967167E1,2.5559611E0,9.633806E0,2.3536668E0,1.6909451E2,3.5060072E0,1.6743822E2,3.101051E2,2.2218437E2,7.2125595E1,2.1E0,1.7522417E1,3.0131469E0,-2.6112635E0,-4.6189013E-1,2.159124E2,1.7887E1,1.53685465E1,-7.2400837E0,-1.870807E0,-8.704667E0,2.846514E2,2.1240763E1,1.5815435E1,1.7586371E2,1.5224152E2,-6.158833E0,-8.642166E0,8.724167E-1,1.91825E0,3.101051E2,1.5203667E1,9E-1,1.5555751E1,1.25E1,1.7326584E1,1.7887E1,-1.9102905E0,1.6776499E0,1.3849865E0,4.2228737E0,8.800769E0,-3.0467665E-1,4.836174E0,8.157393E-1,-4.4663516E-1,2.8134375E0,4.652586E-2,-1.8111517E0,7.089787E-2,4.2628107E0,-1.5541579E0,2.9237328E0,-1.2854674E0,2.1761206E-1,1.0815525E0,-2.0040271E0,5.8535285E0,2.1023652E-1,-1.8421645E0,1.7084962E0,-1.6461762E0,4.3716354E0,-6.0004646E-1,-1.631332E0,3.5605088E-1,7.694054E-2,-2.4399291E-1,1.5687916E0,1.0894799E0,-5.3367835E-1,-1.1944916E0,1.0170382E0,-1.3990307E-1,-7.6271814E-1,2.6771984E0,8.3676773E-1],"split_indices":[1,2,0,3,3,3,0,3,3,0,0,2,2,3,1,0,2,2,0,0,0,0,3,0,3,3,3,3,1,0,0,0,0,3,0,0,0,0,0,3,2,2,3,3,0,0,0,0,3,0,1,0,1,0,0,0,0,0,0,0,0,0,0,0,0,0,0,0,0,0,0,0,0,0,0,0,0,0,0,0,0,0,0,0,0,0,0,0,0,0,0,0,0,0,0],"split_type":[0,0,0,0,0,0,0,0,0,0,0,0,0,0,0,0,0,0,0,0,0,0,0,0,0,0,0,0,0,0,0,0,0,0,0,0,0,0,0,0,0,0,0,0,0,0,0,0,0,0,0,0,0,0,0,0,0,0,0,0,0,0,0,0,0,0,0,0,0,0,0,0,0,0,0,0,0,0,0,0,0,0,0,0,0,0,0,0,0,0,0,0,0,0,0],"sum_hessian":[9.31E2,4.79E2,4.52E2,1.66E2,3.13E2,4.17E2,3.5E1,1.27E2,3.9E1,4E0,3.09E2,2.3E2,1.87E2,2.2E1,1.3E1,6E0,1.21E2,1.2E1,2.7E1,2E0,2E0,2.83E2,2.6E1,1E0,2.29E2,2E1,1.67E2,1.2E1,1E1,8E0,5E0,5E0,1E0,1.5E1,1.06E2,4E0,8E0,4E0,2.3E1,1.43E2,1.4E2,8E0,1.8E1,1.6E2,6.9E1,1E1,1E1,5E0,1.62E2,4E0,8E0,4E0,6E0,3E0,5E0,1.1E1,4E0,9.9E1,7E0,2E0,6E0,1E1,1.3E1,9.5E1,4.8E1,9.2E1,4.8E1,1E0,7E0,5E0,1.3E1,1.32E2,2.8E1,2E0,6.7E1,3E0,7E0,6E0,4E0,2E0,3E0,1.21E2,4.1E1,2E0,2E0,1E0,7E0,3E0,1E0,5E0,1E0,2E0,1E0,2E0,3E0],"tree_param":{"num_deleted":"0","num_feature":"4","num_nodes":"95","size_leaf_vector":"1"}},{"base_weights":[1.951086E-1,2.852288E0,-1.3146759E0,5.1308203E0,1.1954156E0,-1.6469107E0,7.019464E0,3.5646768E0,1.1110461E1,9.447794E0,8.801611E-1,-8.6871654E-1,-3.029088E0,1.1802312E1,5.035211E0,2.9253902E0,1.4584266E1,2.8890472E1,6.2025223E0,6.60213E-1,1.4810086E1,2.0528119E0,-1.3133608E0,-4.4661E0,-1.7093058E0,7.197602E-1,3.9609282E0,2.5427399E0,3.4467714E0,-5.9694757E0,3.501494E0,1.8104712E1,-4.5269397E-1,1.3950293E1,8.459979E0,-1.4218131E0,8.6278715E0,-4.7820983E0,1.3841255E0,1.3822695E0,5.2822695E0,-6.6702855E-1,1.1509263E1,-1.4846215E0,7.896721E0,-3.988497E0,-2.266965E0,-2.167589E0,5.7559353E-1,9.348877E-1,4.7383857E0,-1.9584477E0,-3.9260677E-1,1.6506351E0,-1.962493E-2,6.7128015E-1,6.453627E0,4.0441446E0,-9.9022955E-1,4.495544E0,9.42278E-1,-1.970636E0,8.8912106E-1,7.4946266E-1,-6.048666E-1,-1.3103862E0,3.4188095E-1,7.523716E-1,7.990399E0,-5.049753E-1,1.4225707E0,-2.4443471E0,3.8205583E0,-1.3601978E0,8.680341E-1,-1.8870846E0,-5.717214E-1,-1.2024362E-1,1.3011953E0,7.506359E-1,-4.399152E-1,7.1779825E-2,1.7969003E0],"categories":[],"categories_nodes":[],"categories_segments":[],"categories_sizes":[],"default_left":[0,0,0,0,0,0,0,0,0,0,0,0,0,0,0,0,0,0,0,0,0,0,0,0,0,0,0,0,0,0,0,0,0,0,0,0,0,0,0,0,0,0,0,0,0,0,0,0,0,0,0,0,0,0,0,0,0,0,0,0,0,0,0,0,0,0,0,0,0,0,0,0,0,0,0,0,0,0,0,0,0,0,0],"id":3,"left_children":[1,3,5,7,9,11,13,15,17,-1,19,21,23,25,27,29,31,33,35,37,39,41,43,45,47,-1,-1,-1,49,51,53,55,-1,-1,57,-1,59,61,63,-1,-1,65,67,69,71,73,-1,75,77,79,81,-1,-1,-1,-1,-1,-1,-1,-1,-1,-1,-1,-1,-1,-1,-1,-1,-1,-1,-1,-1,-1,-1,-1,-1,-1,-1,-1,-1,-1,-1,-1,-1],"loss_changes":[3.742718E3,1.2698967E3,1.6590509E3,1.2902217E3,1.8538948E3,6.136886E2,1.5885156E2,7.604282E2,2.351439E3,0E0,5.9073895E2,4.8074316E2,3.8305408E2,4.7353394E1,6.9158875E1,5.794579E2,3.6725183E2,1.7653501E3,6.7780084E2,7.709318E2,4.4959717E0,1.267959E3,5.164677E2,1.1450964E2,1.1538498E2,0E0,0E0,0E0,4.099153E1,9.68396E0,7.353722E2,2.221908E2,0E0,0E0,2.8067535E2,0E0,6.5057324E2,3.3777423E2,6.566194E2,0E0,0E0,2.6573987E2,1.4308431E3,3.975647E2,5.695508E2,3.3972278E2,0E0,8.624979E1,7.152484E1,2.6249163E1,4.923387E1,0E0,0E0,0E0,0E0,0E0,0E0,0E0,0E0,0E0,0E0,0E0,0E0,0E0,0E0,0E0,0E0,0E0,0E0,0E0,0E0,0E0,0E0,0E0,0E0,0E0,0E0,0E0,0E0,0E0,0E0,0E0,0E0],"parents":[2147483647,0,0,1,1,2,2,3,3,4,4,5,5,6,6,7,7,8,8,10,10,11,11,12,12,13,13,14,14,15,15,16,16,17,17,18,18,19,19,20,20,21,21,22,22,23,23,24,24,28,28,29,29,30,30,31,31,34,34,36,36,37,37,38,38,41,41,42,42,43,43,44,44,45,45,47,47,48,48,49,49,50,50],"right_children":[2,4,6,8,10,12,14,16,18,-1,20,22,24,26,28,30,32,34,36,38,40,42,44,46,48,-1,-1,-1,50,52,54,56,-1,-1,58,-1,60,62,64,-1,-1,66,68,70,72,74,-1,76,78,80,82,-1,-1,-1,-1,-1,-1,-1,-1,-1,-1,-1,-1,-1,-1,-1,-1,-1,-1,-1,-1,-1,-1,-1,-1,-1,-1,-1,-1,-1,-1,-1,-1],"split_conditions":[1E-1,1.5027575E1,1.6741167E1,3.09292E2,1.1892635E2,2.8000002E0,2E-1,1.4773164E1,3.141314E2,9.447794E0,3.3483215E2,1.1928989E1,2.8974164E0,1.2224107E1,1.473482E2,3.792367E1,9.586999E0,3.0869997E0,-1.1967167E1,1.59134655E1,-3.0088332E0,1.1720751E1,2.6999998E0,2.1765838E0,1.4564083E1,7.197602E-1,3.9609282E0,2.5427399E0,1.0000001E0,4.3661666E0,5.1099167E0,-5.1692505E0,-4.5269397E-1,1.3950293E1,3.1085596E2,-1.4218131E0,-8.704667E0,1.4099499E1,2.9606186E2,1.3822695E0,5.2822695E0,-4.142166E0,1.772782E2,3.2392975E2,2.0859862E2,1.5140833E0,-2.266965E0,2.6478434E1,2.2855353E2,1.4458382E1,1.7522417E1,-1.9584477E0,-3.9260677E-1,1.6506351E0,-1.962493E-2,6.7128015E-1,6.453627E0,4.0441446E0,-9.9022955E-1,4.495544E0,9.42278E-1,-1.970636E0,8.8912106E-1,7.4946266E-1,-6.048666E-1,-1.3103862E0,3.4188095E-1,7.523716E-1,7.990399E0,-5.049753E-1,1.4225707E0,-2.4443471E0,3.8205583E0,-1.3601978E0,8.680341E-1,-1.8870846E0,-5.717214E-1,-1.2024362E-1,1.3011953E0,7.506359E-1,-4.399152E-1,7.1779825E-2,1.7969003E0],"split_indices":[1,2,0,3,3,1,1,2,3,0,3,2,0,2,3,3,0,0,0,2,0,2,1,0,0,0,0,0,1,0,0,0,0,0,3,0,0,0,3,0,0,0,3,3,3,0,0,3,3,2,0,0,0,0,0,0,0,0,0,0,0,0,0,0,0,0,0,0,0,0,0,0,0,0,0,0,0,0,0,0,0,0,0],"split_type":[0,0,0,0,0,0,0,0,0,0,0,0,0,0,0,0,0,0,0,0,0,0,0,0,0,0,0,0,0,0,0,0,0,0,0,0,0,0,0,0,0,0,0,0,0,0,0,0,0,0,0,0,0,0,0,0,0,0,0,0,0,0,0,0,0,0,0,0,0,0,0,0,0,0,0,0,0,0,0,0,0,0,0],"sum_hessian":[9.31E2,3.37E2,5.94E2,1.41E2,1.96E2,5.72E2,2.2E1,1.13E2,2.8E1,1E0,1.95E2,3.67E2,2.05E2,5E0,1.7E1,1.08E2,5E0,5E0,2.3E1,1.93E2,2E0,4.8E1,3.19E2,9.7E1,1.08E2,1E0,4E0,4E0,1.3E1,6E0,1.02E2,4E0,1E0,2E0,3E0,4E0,1.9E1,2.2E1,1.71E2,1E0,1E0,3.8E1,1E1,3.14E2,5E0,8.6E1,1.1E1,9E1,1.8E1,5E0,8E0,5E0,1E0,6.5E1,3.7E1,1E0,3E0,2E0,1E0,8E0,1.1E1,1.8E1,4E0,1.29E2,4.2E1,1.2E1,2.6E1,7E0,3E0,3.05E2,9E0,1E0,4E0,8E1,6E0,4E0,8.6E1,1.5E1,3E0,3E0,2E0,2E0,6E0],"tree_param":{"num_deleted":"0","num_feature":"4","num_nodes":"83","size_leaf_vector":"1"}},{"base_weights":[1.9835907E-1,1.6154572E0,-1.3036398E0,1.2869515E0,8.086767E0,-1.6082637E0,2.269596E0,2.5947495E0,-1.0733372E0,1.1276849E1,1.8714352E0,3.9289057E-1,-1.964505E0,2.0911807E-1,3.731408E0,3.2482398E-1,6.3007455E0,3.895343E-1,-2.9949791E0,3.5096598E0,1.2926174E1,-8.353116E-1,5.4636965E0,-2.4864191E-1,4.05608E0,-5.017891E0,-1.7179822E0,1.8508759E0,-9.6102417E-1,5.749076E0,2.3119256E0,2.536329E0,-2.581837E0,-5.5496335E-1,1.1451199E1,-6.7106543E0,1.5104235E0,5.285186E0,-3.702343E0,1.7313629E0,8.320732E-1,1.545983E1,6.287091E0,6.388378E-1,-1.8541577E0,2.4380221E0,-3.7881547E-1,-1.1254201E0,4.4231467E0,1.5742794E-1,-5.260587E0,-3.786252E0,-1.3696488E0,-2.6028702E-1,2.4485629E0,1.9742578E0,-1.9416269E0,7.261308E0,2.4247609E-1,2.8146076E-1,1.4916906E0,-4.476527E-1,1.7479603E0,-2.0363135E0,2.0232363E-1,1.0619594E0,-1.490371E0,4.892277E0,4.3159634E-1,-2.4604325E0,-8.055319E-1,-7.3678136E-1,1.3113284E0,1.408331E-1,2.272709E0,-1.235057E0,1.1255499E0,-7.310486E-2,4.475378E-1,6.443565E-1,5.1164117E0,8.180617E-1,2.3254838E0,-6.5590143E-1,-7.881546E-2,2.9288242E0,-4.5676595E-1,4.085937E0,1.2645368E-1,-8.061473E-1,-1.6868415E0,-1.3551735E0,4.475913E0,8.4583503E-1,-5.301537E-1,-4.7700502E-2,1.1376288E0,8.166704E-2,8.06749E-1,-7.961809E-1,3.9060213E-2,5.7864594E-1,2.3826127E0,1.0620087E0,-5.813484E-1],"categories":[],"categories_nodes":[],"categories_segments":[],"categories_sizes":[],"default_left":[0,0,0,0,0,0,0,0,0,0,0,0,0,0,0,0,0,0,0,0,0,0,0,0,0,0,0,0,0,0,0,0,0,0,0,0,0,0,0,0,0,0,0,0,0,0,0,0,0,0,0,0,0,0,0,0,0,0,0,0,0,0,0,0,0,0,0,0,0,0,0,0,0,0,0,0,0,0,0,0,0,0,0,0,0,0,0,0,0,0,0,0,0,0,0,0,0,0,0,0,0,0,0,0,0],"id":4,"left_children":[1,3,5,7,9,11,13,15,17,19,21,23,25,27,29,31,33,35,37,39,41,43,45,47,-1,49,51,53,55,57,59,61,63,65,67,69,71,73,75,-1,77,79,81,-1,83,-1,-1,85,87,-1,89,91,93,-1,95,97,99,101,-1,103,-1,-1,-1,-1,-1,-1,-1,-1,-1,-1,-1,-1,-1,-1,-1,-1,-1,-1,-1,-1,-1,-1,-1,-1,-1,-1,-1,-1,-1,-1,-1,-1,-1,-1,-1,-1,-1,-1,-1,-1,-1,-1,-1,-1,-1],"loss_changes":[1.985849E3,1.0100067E3,4.9673755E2,1.4165304E3,4.349265E2,2.9876147E2,1.0765283E2,2.4795928E3,4.621895E2,1.4679297E2,9.207396E1,5.423465E2,2.5859827E2,3.2516182E1,4.6853485E1,1.189318E3,3.9610747E3,7.5823724E2,4.354209E2,1.941991E1,1.0465637E2,2.2072226E1,8.1912766E1,2.589375E2,0E0,3.773529E1,2.3256177E2,1.3498112E1,3.2616726E1,5.3904358E1,7.42257E1,1.400428E3,1.1002076E3,9.030269E2,3.0885283E3,5.5994324E1,9.4114453E2,6.262668E1,2.1937653E2,0E0,2.492616E0,1.3321643E2,4.9324493E0,0E0,2.0688343E0,0E0,0E0,2.4403894E2,3.6227515E2,0E0,8.194092E0,7.1007043E2,4.779256E2,0E0,2.162304E1,2.9183283E0,1.2151802E1,6.461273E0,0E0,7.19453E1,0E0,0E0,0E0,0E0,0E0,0E0,0E0,0E0,0E0,0E0,0E0,0E0,0E0,0E0,0E0,0E0,0E0,0E0,0E0,0E0,0E0,0E0,0E0,0E0,0E0,0E0,0E0,0E0,0E0,0E0,0E0,0E0,0E0,0E0,0E0,0E0,0E0,0E0,0E0,0E0,0E0,0E0,0E0,0E0,0E0],"parents":[2147483647,0,0,1,1,2,2,3,3,4,4,5,5,6,6,7,7,8,8,9,9,10,10,11,11,12,12,13,13,14,14,15,15,16,16,17,17,18,18,19,19,20,20,21,21,22,22,23,23,25,25,26,26,27,27,28,28,29,29,30,30,31,31,32,32,33,33,34,34,35,35,36,36,37,37,38,38,40,40,41,41,42,42,44,44,47,47,48,48,50,50,51,51,52,52,54,54,55,55,56,56,57,57,59,59],"right_children":[2,4,6,8,10,12,14,16,18,20,22,24,26,28,30,32,34,36,38,40,42,44,46,48,-1,50,52,54,56,58,60,62,64,66,68,70,72,74,76,-1,78,80,82,-1,84,-1,-1,86,88,-1,90,92,94,-1,96,98,100,102,-1,104,-1,-1,-1,-1,-1,-1,-1,-1,-1,-1,-1,-1,-1,-1,-1,-1,-1,-1,-1,-1,-1,-1,-1,-1,-1,-1,-1,-1,-1,-1,-1,-1,-1,-1,-1,-1,-1,-1,-1,-1,-1,-1,-1,-1,-1],"split_conditions":[5E-1,1.7887E1,1.5120332E1,4.591167E0,1.6171976E1,1.3733186E1,1.6341383E1,2.684578E2,2.6423068E2,1.4847108E2,2.0301582E1,1.3570615E1,6.3638924E1,1.1720751E1,1.847698E1,-1.7046667E0,-3.6630003E0,6.703666E0,1.0990322E1,1.8924501E1,1E-1,1.624394E1,1.8751991E1,3.0608923E2,4.05608E0,-1.5250501E1,8.000001E-1,8.000001E-1,1.52369995E1,1.7589083E1,7.6999993E0,-6.9234166E0,4.390833E-1,1.3854155E1,2.4395811E1,1.9586117E1,1.7658806E2,6.403667E0,3.4593832E2,1.7313629E0,1.9878666E1,1.14862E1,1.9284918E1,6.388378E-1,1.7786331E1,2.4380221E0,-3.7881547E-1,8.12197E0,3.101051E2,1.5742794E-1,-8.45675E0,3.285678E1,1.0000001E0,-2.6028702E-1,1.5739082E1,1.5203667E1,1.6741167E1,1.5407832E1,2.4247609E-1,1.3000002E0,1.4916906E0,-4.476527E-1,1.7479603E0,-2.0363135E0,2.0232363E-1,1.0619594E0,-1.490371E0,4.892277E0,4.3159634E-1,-2.4604325E0,-8.055319E-1,-7.3678136E-1,1.3113284E0,1.408331E-1,2.272709E0,-1.235057E0,1.1255499E0,-7.310486E-2,4.475378E-1,6.443565E-1,5.1164117E0,8.180617E-1,2.3254838E0,-6.5590143E-1,-7.881546E-2,2.9288242E0,-4.5676595E-1,4.085937E0,1.2645368E-1,-8.061473E-1,-1.6868415E0,-1.3551735E0,4.475913E0,8.4583503E-1,-5.301537E-1,-4.7700502E-2,1.1376288E0,8.166704E-2,8.06749E-1,-7.961809E-1,3.9060213E-2,5.7864594E-1,2.3826127E0,1.0620087E0,-5.813484E-1],"split_indices":[1,0,0,0,2,2,2,3,3,3,0,2,3,2,2,0,0,0,2,0,1,2,2,3,0,0,1,1,0,0,1,0,0,2,2,2,3,0,3,0,0,2,0,0,2,0,0,2,3,0,0,2,1,0,0,0,0,0,0,1,0,0,0,0,0,0,0,0,0,0,0,0,0,0,0,0,0,0,0,0,0,0,0,0,0,0,0,0,0,0,0,0,0,0,0,0,0,0,0,0,0,0,0,0,0],"split_type":[0,0,0,0,0,0,0,0,0,0,0,0,0,0,0,0,0,0,0,0,0,0,0,0,0,0,0,0,0,0,0,0,0,0,0,0,0,0,0,0,0,0,0,0,0,0,0,0,0,0,0,0,0,0,0,0,0,0,0,0,0,0,0,0,0,0,0,0,0,0,0,0,0,0,0,0,0,0,0,0,0,0,0,0,0,0,0,0,0,0,0,0,0,0,0,0,0,0,0,0,0,0,0,0,0],"sum_hessian":[9.31E2,4.79E2,4.52E2,4.57E2,2.2E1,4.17E2,3.5E1,2.94E2,1.63E2,1.4E1,8E0,6.3E1,3.54E2,1.5E1,2E1,1.83E2,1.11E2,9.3E1,7E1,3E0,1.1E1,5E0,3E0,6.1E1,2E0,2.5E1,3.29E2,6E0,9E0,7E0,1.3E1,1.04E2,7.9E1,4.8E1,6.3E1,1.2E1,8.1E1,5E0,6.5E1,1E0,2E0,7E0,4E0,1E0,4E0,2E0,1E0,5.2E1,9E0,1E0,2.4E1,4.6E1,2.83E2,1E0,5E0,2E0,7E0,5E0,2E0,8E0,5E0,4.7E1,5.7E1,3.4E1,4.5E1,2.5E1,2.3E1,4.2E1,2.1E1,8E0,4E0,3.4E1,4.7E1,2E0,3E0,6.2E1,3E0,1E0,1E0,1E0,6E0,2E0,2E0,3E0,1E0,1E0,5.1E1,2E0,7E0,4E0,2E1,4.5E1,1E0,2.4E1,2.59E2,2E0,3E0,1E0,1E0,5E0,2E0,1E0,4E0,3E0,5E0],"tree_param":{"num_deleted":"0","num_feature":"4","num_nodes":"105","size_leaf_vector":"1"}},{"base_weights":[1.7632574E-1,-1.1298289E-1,4.309126E0,1.2837765E0,-8.5903186E-1,4.7615514E0,-3.3283257E0,9.1245544E-1,1.1091467E1,-1.2960856E0,1.2425332E-1,5.3415217E0,2.0932043E0,-1.3579544E0,3.9936163E-2,5.977314E0,2.9272953E-1,-5.1336974E-1,1.779614E1,-8.8231146E-1,-2.8840978E0,2.784602E0,-2.1733556E0,4.4664526E0,4.0895705E0,-2.6910055E0,7.325915E0,9.387339E-1,2.0975712E1,6.945338E0,-4.3525597E-1,6.957508E0,-2.3439374E0,6.0816207E0,4.4108763E-1,-1.6217825E0,1.8166834E0,-4.2734885E0,-1.6186216E0,1.3520741E-2,1.0341481E1,2.807793E0,-2.3956106E0,2.0779643E0,6.0400996E0,-1.5319993E0,3.9740467E-1,8.0958185E0,5.214598E-1,1.9183941E0,-1.9759461E0,-4.9819538E-1,8.639382E0,-3.2430598E-1,4.9198523E0,-1.3241868E0,1.5735108E-2,1.3846436E-1,2.9924145E0,-3.8592348E-1,-1.292037E0,1.1004092E0,-1.9518708E-1,-1.924641E0,-8.709119E-1,-9.990096E-1,-5.542453E-2,1.3624623E0,-1.3544805E0,4.0668545E0,4.5487323E-1,-1.1713929E0,-1.9970165E-1,1.3005471E0,1.2679352E-2,9.000917E-1,2.3257356E0,6.2742925E-1,-2.5932428E-1,2.70464E0,6.625843E-1],"categories":[],"categories_nodes":[],"categories_segments":[],"categories_sizes":[],"default_left":[0,0,0,0,0,0,0,0,0,0,0,0,0,0,0,0,0,0,0,0,0,0,0,0,0,0,0,0,0,0,0,0,0,0,0,0,0,0,0,0,0,0,0,0,0,0,0,0,0,0,0,0,0,0,0,0,0,0,0,0,0,0,0,0,0,0,0,0,0,0,0,0,0,0,0,0,0,0,0,0,0],"id":5,"left_children":[1,3,5,7,9,11,13,15,17,19,21,23,25,-1,-1,27,29,31,33,35,37,39,41,43,-1,45,47,49,51,53,55,57,-1,-1,-1,59,61,63,65,67,69,-1,71,73,75,-1,77,79,-1,-1,-1,-1,-1,-1,-1,-1,-1,-1,-1,-1,-1,-1,-1,-1,-1,-1,-1,-1,-1,-1,-1,-1,-1,-1,-1,-1,-1,-1,-1,-1,-1],"loss_changes":[1.114837E3,9.097712E2,2.266261E2,1.0969872E3,2.4468787E2,7.857764E1,1.719244E1,9.210645E2,8.6500903E2,2.5634418E2,1.0818414E3,2.8008252E2,3.201267E2,0E0,0E0,2.3985696E3,1.2767327E3,3.2703775E2,2.5314526E2,6.296365E2,1.3550037E2,1.717E3,2.659246E2,1.5282892E2,0E0,5.425322E1,1.1739838E1,1.068542E3,1.4643582E3,1.9906743E3,4.620555E2,5.419516E1,0E0,0E0,0E0,2.1687659E2,3.129997E2,9.2923706E1,1.0735838E2,1.271306E3,6.035962E2,0E0,2.4279095E2,8.712115E1,1.1207544E2,0E0,1.0358078E1,7.159088E0,0E0,0E0,0E0,0E0,0E0,0E0,0E0,0E0,0E0,0E0,0E0,0E0,0E0,0E0,0E0,0E0,0E0,0E0,0E0,0E0,0E0,0E0,0E0,0E0,0E0,0E0,0E0,0E0,0E0,0E0,0E0,0E0,0E0],"parents":[2147483647,0,0,1,1,2,2,3,3,4,4,5,5,6,6,7,7,8,8,9,9,10,10,11,11,12,12,15,15,16,16,17,17,18,18,19,19,20,20,21,21,22,22,23,23,25,25,26,26,27,27,28,28,29,29,30,30,31,31,35,35,36,36,37,37,38,38,39,39,40,40,42,42,43,43,44,44,46,46,47,47],"right_children":[2,4,6,8,10,12,14,16,18,20,22,24,26,-1,-1,28,30,32,34,36,38,40,42,44,-1,46,48,50,52,54,56,58,-1,-1,-1,60,62,64,66,68,70,-1,72,74,76,-1,78,80,-1,-1,-1,-1,-1,-1,-1,-1,-1,-1,-1,-1,-1,-1,-1,-1,-1,-1,-1,-1,-1,-1,-1,-1,-1,-1,-1,-1,-1,-1,-1,-1,-1],"split_conditions":[1.6249498E1,1E-1,3.2096448E2,3.3483215E2,2.778237E2,1.9164717E1,1E-1,1.0464798E1,1.0829958E1,2.3910208E1,2.0974169E0,1.8568813E1,2.420314E1,-1.3579544E0,3.9936163E-2,1.0163227E1,1.4568854E2,3.4239255E2,1.5273505E1,2.0188908E1,1.7265834E0,9.745001E-1,2.8008054E2,1.7475983E2,4.0895705E0,1.7522417E1,1.6909451E2,-2.6692502E0,4.8967297E1,1.04364586E2,1.7168198E2,-1.2846333E1,-2.3439374E0,6.0816207E0,4.4108763E-1,1.8847641E1,2.7E0,1.7000003E0,2.6260265E1,2.0163212E1,1.5000002E0,2.807793E0,9.087E0,1.6171976E1,1.7887E1,-1.5319993E0,1.7887E1,1.7589083E1,5.214598E-1,1.9183941E0,-1.9759461E0,-4.9819538E-1,8.639382E0,-3.2430598E-1,4.9198523E0,-1.3241868E0,1.5735108E-2,1.3846436E-1,2.9924145E0,-3.8592348E-1,-1.292037E0,1.1004092E0,-1.9518708E-1,-1.924641E0,-8.709119E-1,-9.990096E-1,-5.542453E-2,1.3624623E0,-1.3544805E0,4.0668545E0,4.5487323E-1,-1.1713929E0,-1.9970165E-1,1.3005471E0,1.2679352E-2,9.000917E-1,2.3257356E0,6.2742925E-1,-2.5932428E-1,2.70464E0,6.625843E-1],"split_indices":[0,1,3,3,3,2,1,2,2,2,0,2,2,0,0,2,3,3,2,2,0,0,3,3,0,0,3,0,3,3,3,0,0,0,0,2,1,1,2,2,1,0,0,2,0,0,0,0,0,0,0,0,0,0,0,0,0,0,0,0,0,0,0,0,0,0,0,0,0,0,0,0,0,0,0,0,0,0,0,0,0],"split_type":[0,0,0,0,0,0,0,0,0,0,0,0,0,0,0,0,0,0,0,0,0,0,0,0,0,0,0,0,0,0,0,0,0,0,0,0,0,0,0,0,0,0,0,0,0,0,0,0,0,0,0,0,0,0,0,0,0,0,0,0,0,0,0,0,0,0,0,0,0,0,0,0,0,0,0,0,0,0,0,0,0],"sum_hessian":[9.31E2,8.71E2,6E1,3.03E2,5.68E2,5.7E1,3E0,2.93E2,1E1,3.93E2,1.75E2,4.6E1,1.1E1,2E0,1E0,3.1E1,2.62E2,4E0,6E0,3.13E2,8E1,8.1E1,9.4E1,4.3E1,3E0,6E0,5E0,2.4E1,7E0,2.5E1,2.37E2,2E0,2E0,5E0,1E0,2.46E2,6.7E1,3.7E1,4.3E1,6E1,2.1E1,1E0,9.3E1,1.8E1,2.5E1,3E0,3E0,4E0,1E0,1.4E1,1E1,2E0,5E0,1.4E1,1.1E1,2.5E1,2.12E2,1E0,1E0,2.2E2,2.6E1,3.8E1,2.9E1,1.3E1,2.4E1,1.9E1,2.4E1,3E1,3E1,1.5E1,6E0,4.9E1,4.4E1,8E0,1E1,1E1,1.5E1,1E0,2E0,3E0,1E0],"tree_param":{"num_deleted":"0","num_feature":"4","num_nodes":"81","size_leaf_vector":"1"}},{"base_weights":[1.5568049E-1,-5.61248E-2,3.1809022E0,1.4606943E0,-4.4726962E-1,3.472859E0,-1.0863637E0,-3.2473311E0,2.2819753E0,-9.63407E-1,4.6184203E-1,4.1855826E0,2.0839338E0,-9.190946E0,-7.075189E-1,3.832149E0,-1.7727053E0,-1.580606E-1,-2.6872122E0,2.9605126E0,-1.3725388E0,5.162935E0,1.637741E0,8.851426E-1,3.2022574E0,-1.0131896E1,-3.906435E-1,1.5033795E0,-1.8350534E0,1.9719682E0,1.0863626E1,-6.791512E0,-4.315063E-1,-1.0172724E0,1.6771445E0,-4.4135323E0,-9.230444E-1,1.7589931E0,6.867878E0,-6.2864785E0,-7.618856E-1,3.8509324E0,1.016556E1,-1.3127967E0,1.4421234E0,1.2765765E0,1.9192748E-1,6.309471E-1,4.0876303E0,-9.0163326E-1,-3.2456193E0,-5.9791046E-1,2.6684446E0,1.2521948E-1,3.3084347E0,5.226569E0,-3.8216802E-1,-5.4709697E-1,-2.1553612E0,6.0954195E-1,-6.5114033E-1,-8.070125E-1,1.1941213E-1,3.6789627E0,5.41553E-2,-1.7138373E0,-1.6709828E-1,2.361585E0,-4.6968314E-1,-1.5983967E0,1.0986409E0,1.4048082E-1,-2.030404E0,2.1490489E-1,-6.9618183E-1,-1.5035132E0,1.4800941E0,3.4013703E0,8.214295E-1,2.3383571E-1,-9.2305404E-1,-5.014414E-1,2.3752055E-1,6.804134E-1,-6.4205194E-1,1.747891E0,5.6374985E-1],"categories":[],"categories_nodes":[],"categories_segments":[],"categories_sizes":[],"default_left":[0,0,0,0,0,0,0,0,0,0,0,0,0,0,0,0,0,0,0,0,0,0,0,0,0,0,0,0,0,0,0,0,0,0,0,0,0,0,0,0,0,0,0,0,0,0,0,0,0,0,0,0,0,0,0,0,0,0,0,0,0,0,0,0,0,0,0,0,0,0,0,0,0,0,0,0,0,0,0,0,0,0,0,0,0,0,0],"id":6,"left_children":[1,3,5,7,9,11,-1,13,15,17,19,21,23,25,27,29,31,33,35,37,39,41,43,45,47,49,-1,51,-1,53,55,57,59,61,63,65,67,69,-1,71,73,75,77,79,-1,-1,81,83,85,-1,-1,-1,-1,-1,-1,-1,-1,-1,-1,-1,-1,-1,-1,-1,-1,-1,-1,-1,-1,-1,-1,-1,-1,-1,-1,-1,-1,-1,-1,-1,-1,-1,-1,-1,-1,-1,-1],"loss_changes":[5.97365E2,5.180074E2,1.3371722E2,6.9953375E2,3.2608813E2,4.968274E1,0E0,4.0108014E2,9.684686E2,6.1457465E2,1.1591088E3,8.616974E1,2.6659546E1,4.6190613E1,2.4838535E2,1.430437E3,2.865118E2,4.794856E2,4.2534424E2,2.5222942E3,4.333145E2,1.380664E2,1.18525696E2,2.7217854E1,2.2463173E1,1.7477417E0,0E0,4.053805E2,0E0,1.2483759E3,1.8530198E3,4.4703064E0,1.5433615E2,4.9114148E2,1.534595E3,3.5257336E2,4.135713E2,1.395241E3,0E0,5.5211548E1,3.035067E2,2.4542737E2,1.2493286E1,2.8234076E1,0E0,0E0,1.361785E1,2.3000385E1,1.976979E1,0E0,0E0,0E0,0E0,0E0,0E0,0E0,0E0,0E0,0E0,0E0,0E0,0E0,0E0,0E0,0E0,0E0,0E0,0E0,0E0,0E0,0E0,0E0,0E0,0E0,0E0,0E0,0E0,0E0,0E0,0E0,0E0,0E0,0E0,0E0,0E0,0E0,0E0],"parents":[2147483647,0,0,1,1,2,2,3,3,4,4,5,5,7,7,8,8,9,9,10,10,11,11,12,12,13,13,14,14,15,15,16,16,17,17,18,18,19,19,20,20,21,21,22,22,23,23,24,24,25,25,27,27,29,29,30,30,31,31,32,32,33,33,34,34,35,35,36,36,37,37,39,39,40,40,41,41,42,42,43,43,46,46,47,47,48,48],"right_children":[2,4,6,8,10,12,-1,14,16,18,20,22,24,26,28,30,32,34,36,38,40,42,44,46,48,50,-1,52,-1,54,56,58,60,62,64,66,68,70,-1,72,74,76,78,80,-1,-1,82,84,86,-1,-1,-1,-1,-1,-1,-1,-1,-1,-1,-1,-1,-1,-1,-1,-1,-1,-1,-1,-1,-1,-1,-1,-1,-1,-1,-1,-1,-1,-1,-1,-1,-1,-1,-1,-1,-1,-1],"split_conditions":[1.6249498E1,1.337825E1,3.274543E2,-9.6505E0,2.705388E2,2E-1,-1.0863637E0,1.4640155E2,7.934916E0,1.9537056E2,1.6557498E0,2.684578E2,1.6000001E0,1E-1,2E-1,2.962067E2,1.0026583E1,1.7484317E2,6E-1,1.5140833E0,2.776583E0,1.969614E2,3.095936E2,1.04364586E2,1.6341383E1,1.3567355E1,-3.906435E-1,1.1592895E1,-1.8350534E0,1.2849528E1,1.1841756E1,8.587338E0,1.0691453E1,1.7283749E1,1.7767099E2,6.403667E0,1.4773164E1,-5.7775836E0,6.867878E0,1.3979871E1,3.0220963E2,1.665575E1,1.8182835E1,2.8505362E2,1.4421234E0,1.2765765E0,1.1841756E1,4.2E0,1.847698E1,-9.0163326E-1,-3.2456193E0,-5.9791046E-1,2.6684446E0,1.2521948E-1,3.3084347E0,5.226569E0,-3.8216802E-1,-5.4709697E-1,-2.1553612E0,6.0954195E-1,-6.5114033E-1,-8.070125E-1,1.1941213E-1,3.6789627E0,5.41553E-2,-1.7138373E0,-1.6709828E-1,2.361585E0,-4.6968314E-1,-1.5983967E0,1.0986409E0,1.4048082E-1,-2.030404E0,2.1490489E-1,-6.9618183E-1,-1.5035132E0,1.4800941E0,3.4013703E0,8.214295E-1,2.3383571E-1,-9.2305404E-1,-5.014414E-1,2.3752055E-1,6.804134E-1,-6.4205194E-1,1.747891E0,5.6374985E-1],"split_indices":[0,2,3,0,3,1,0,3,0,3,0,3,1,1,1,3,0,3,1,0,0,3,3,3,2,3,0,2,0,2,2,2,2,2,3,0,2,0,0,2,3,0,0,3,0,0,2,1,2,0,0,0,0,0,0,0,0,0,0,0,0,0,0,0,0,0,0,0,0,0,0,0,0,0,0,0,0,0,0,0,0,0,0,0,0,0,0],"split_type":[0,0,0,0,0,0,0,0,0,0,0,0,0,0,0,0,0,0,0,0,0,0,0,0,0,0,0,0,0,0,0,0,0,0,0,0,0,0,0,0,0,0,0,0,0,0,0,0,0,0,0,0,0,0,0,0,0,0,0,0,0,0,0,0,0,0,0,0,0,0,0,0,0,0,0,0,0,0,0,0,0,0,0,0,0,0,0],"sum_hessian":[9.31E2,8.71E2,6E1,1.78E2,6.93E2,5.8E1,2E0,2.6E1,1.52E2,4.42E2,2.51E2,3.7E1,2.1E1,7E0,1.9E1,1.1E2,4.2E1,3.02E2,1.4E2,1.06E2,1.45E2,2.6E1,1.1E1,1.1E1,1E1,6E0,1E0,1.4E1,5E0,8.8E1,2.2E1,8E0,3.4E1,2.06E2,9.6E1,7E1,7E1,1.01E2,5E0,1.5E1,1.3E2,2.2E1,4E0,6E0,5E0,1E0,1E1,3E0,7E0,1E0,5E0,1E1,4E0,7.6E1,1.2E1,1.4E1,8E0,1E0,7E0,1.4E1,2E1,9.4E1,1.12E2,1.1E1,8.5E1,5.2E1,1.8E1,4E0,6.6E1,2.1E1,8E1,1E0,1.4E1,6.7E1,6.3E1,2E0,2E1,3E0,1E0,3E0,3E0,2E0,8E0,2E0,1E0,3E0,4E0],"tree_param":{"num_deleted":"0","num_feature":"4","num_nodes":"87","size_leaf_vector":"1"}},{"base_weights":[1.2562177E-1,8.690698E-1,-6.62415E-1,1.5563005E0,-2.1603662E-1,-5.617004E-1,-2.4216123E0,1.2505367E0,1.8979343E1,1.3108671E0,-1.5865254E0,-6.9146603E-1,3.8336475E0,-2.1957383E0,1.7947617E0,3.6421767E-1,2.311715E1,7.505565E-1,7.592729E0,-2.3594792E0,4.2140136E0,-4.0223634E-1,-3.893956E0,5.1513076E0,-1.523323E-1,-6.457166E0,-3.566736E-1,3.268326E0,-6.321865E-2,8.3713907E-1,8.688767E0,-3.1086833E0,4.34179E0,-1.968077E0,-3.0260727E0,7.7842546E0,5.5180496E-1,-6.296329E-1,8.551932E0,-7.6296754E0,-2.3661354E0,-3.617338E0,4.729142E0,-2.6502275E0,1.5156184E-1,2.9037523E-1,-1.3973844E0,5.021488E-1,2.7177062E0,-1.0056663E0,3.5428667E-1,-1.2897462E0,2.8719575E0,3.6123185E0,-3.1133366E-1,-8.059867E-1,2.0079713E-1,3.0026143E0,-5.007062E-1,-9.6950245E-1,2.002101E0,-3.4844032E-1,1.5875491E-1,6.2347665E0,1.0239013E-1,-1.1290143E0,-2.62471E0,1.5071738E-1,-8.6605585E-1,1.7422086E-1,-1.324142E0,5.5464078E-2,1.7456963E0],"categories":[],"categories_nodes":[],"categories_segments":[],"categories_sizes":[],"default_left":[0,0,0,0,0,0,0,0,0,0,0,0,0,0,0,0,0,0,0,0,0,0,0,0,0,0,0,0,0,0,0,0,0,0,0,0,0,0,0,0,0,0,0,0,0,0,0,0,0,0,0,0,0,0,0,0,0,0,0,0,0,0,0,0,0,0,0,0,0,0,0,0,0],"id":7,"left_children":[1,3,5,7,9,11,-1,13,15,17,19,21,23,25,27,-1,29,31,-1,33,35,37,39,-1,41,43,45,47,49,-1,-1,51,53,55,-1,57,59,61,63,65,67,69,71,-1,-1,-1,-1,-1,-1,-1,-1,-1,-1,-1,-1,-1,-1,-1,-1,-1,-1,-1,-1,-1,-1,-1,-1,-1,-1,-1,-1,-1,-1],"loss_changes":[5.466014E2,3.5828113E2,3.3352075E2,1.5425026E3,3.933967E2,2.5817444E2,0E0,5.4785E2,3.3948096E2,1.1777389E3,4.538142E2,4.022809E2,6.937284E2,3.111786E2,6.874079E2,0E0,3.944524E2,1.2331273E3,0E0,2.4630719E2,1.5260422E2,8.2187964E2,1.8741754E2,0E0,2.0316461E2,2.0305145E2,1.6973395E2,1.2774911E3,4.6227307E2,0E0,0E0,6.903446E2,1.9177588E3,1.6288101E2,0E0,1.4287527E2,1.8370076E2,2.422037E2,9.9711835E2,1.0351685E1,4.1779984E1,2.5968681E1,2.368689E1,0E0,0E0,0E0,0E0,0E0,0E0,0E0,0E0,0E0,0E0,0E0,0E0,0E0,0E0,0E0,0E0,0E0,0E0,0E0,0E0,0E0,0E0,0E0,0E0,0E0,0E0,0E0,0E0,0E0,0E0],"parents":[2147483647,0,0,1,1,2,2,3,3,4,4,5,5,7,7,8,8,9,9,10,10,11,11,12,12,13,13,14,14,16,16,17,17,19,19,20,20,21,21,22,22,24,24,25,25,26,26,27,27,28,28,31,31,32,32,33,33,35,35,36,36,37,37,38,38,39,39,40,40,41,41,42,42],"right_children":[2,4,6,8,10,12,-1,14,16,18,20,22,24,26,28,-1,30,32,-1,34,36,38,40,-1,42,44,46,48,50,-1,-1,52,54,56,-1,58,60,62,64,66,68,70,72,-1,-1,-1,-1,-1,-1,-1,-1,-1,-1,-1,-1,-1,-1,-1,-1,-1,-1,-1,-1,-1,-1,-1,-1,-1,-1,-1,-1,-1,-1],"split_conditions":[5E-1,1.8E1,3.4239255E2,1.7873554E1,2.3536668E0,3.281636E2,-2.4216123E0,-9.163E0,1.644921E2,2.1765838E0,1.6249498E1,3.101051E2,1.5000001E0,1.4640155E2,4.591167E0,3.6421767E-1,-1.5740082E1,2.2322903E1,7.592729E0,3.3818928E1,1.9164717E1,3.0608923E2,7.7866656E-1,5.1513076E0,9.087E0,1E-1,1.3854155E1,1.3224165E0,1.7658806E2,8.3713907E-1,8.688767E0,3.1563885E2,2.4395811E1,2.600486E1,-3.0260727E0,1E-1,1E-1,7.934916E0,1.5703331E0,-7.0171666E0,3.74325E0,-1.3198418E1,2.8999999E0,-2.6502275E0,1.5156184E-1,2.9037523E-1,-1.3973844E0,5.021488E-1,2.7177062E0,-1.0056663E0,3.5428667E-1,-1.2897462E0,2.8719575E0,3.6123185E0,-3.1133366E-1,-8.059867E-1,2.0079713E-1,3.0026143E0,-5.007062E-1,-9.6950245E-1,2.002101E0,-3.4844032E-1,1.5875491E-1,6.2347665E0,1.0239013E-1,-1.1290143E0,-2.62471E0,1.5071738E-1,-8.6605585E-1,1.7422086E-1,-1.324142E0,5.5464078E-2,1.7456963E0],"split_indices":[1,2,3,2,0,3,0,0,3,0,0,3,1,3,0,0,0,2,0,2,2,3,0,0,0,1,2,0,3,0,0,3,2,2,0,1,1,0,0,0,0,0,1,0,0,0,0,0,0,0,0,0,0,0,0,0,0,0,0,0,0,0,0,0,0,0,0,0,0,0,0,0,0],"split_type":[0,0,0,0,0,0,0,0,0,0,0,0,0,0,0,0,0,0,0,0,0,0,0,0,0,0,0,0,0,0,0,0,0,0,0,0,0,0,0,0,0,0,0,0,0,0,0,0,0,0,0,0,0,0,0,0,0,0,0,0,0,0,0,0,0,0,0,0,0,0,0,0,0],"sum_hessian":[9.31E2,4.79E2,4.52E2,2.93E2,1.86E2,4.47E2,5E0,2.89E2,4E0,8.8E1,9.8E1,4.35E2,1.2E1,3.9E1,2.5E2,1E0,3E0,8.7E1,1E0,8.7E1,1.1E1,4E2,3.5E1,2E0,1E1,1.1E1,2.8E1,1.39E2,1.11E2,1E0,2E0,4.2E1,4.5E1,8.4E1,3E0,5E0,6E0,3.91E2,9E0,9E0,2.6E1,6E0,4E0,8E0,3E0,2.2E1,6E0,1.1E2,2.9E1,3E1,8.1E1,3.9E1,3E0,1.8E1,2.7E1,6.6E1,1.8E1,4E0,1E0,4E0,2E0,2.68E2,1.23E2,3E0,6E0,3E0,6E0,4E0,2.2E1,1E0,5E0,1E0,3E0],"tree_param":{"num_deleted":"0","num_feature":"4","num_nodes":"73","size_leaf_vector":"1"}},{"base_weights":[1.1614481E-1,9.2540205E-1,-3.437629E-1,4.1939096E0,4.974114E-1,-2.610936E-1,-6.376987E0,-4.0122983E-1,1.4566409E1,-4.498773E-2,3.0851033E0,-4.0119892E-1,2.2692246E0,-2.077176E0,-3.8226846E-1,-6.4979606E0,1.9404404E0,2.2867168E1,-1.628088E0,4.3651718E-1,-4.1916075E0,1.9419883E0,1.6316984E1,-4.8043737E-1,3.5827894E0,4.5509696E0,1.6553904E0,-1.8318501E-1,-7.2517786E0,7.2540336E0,-5.9503546E0,1.1267607E1,1.1533171E1,4.842726E-1,-1.2983167E0,-1.971536E-1,5.982821E0,-3.062451E0,-9.504596E-1,9.08444E0,-1.22343995E-1,6.669352E0,-2.1383701E-1,-6.414061E-2,-1.1766601E0,5.3368034E0,-1.5508169E0,5.200768E-2,5.39182E0,9.8240775E-1,1.1204793E0,-8.854584E-1,-2.5144722E0,1.7067882E-1,3.8708544E0,-3.1694274E0,-9.3681073E-1,-1.0857903E0,5.884766E0,1.8444262E-1,-8.8923913E-1,4.653709E0,-1.7469774E0,3.8598697E0,-1.371464E0,-6.176609E-1,4.723851E0,-7.313056E-1,1.7978579E0,-1.674629E-1,5.0563437E-1,-2.51875E0,-2.4069946E-1,-1.0412589E0,1.033869E0,2.5177747E-1,1.8960438E0,4.9446264E-1,-2.8703886E-1],"categories":[],"categories_nodes":[],"categories_segments":[],"categories_sizes":[],"default_left":[0,0,0,0,0,0,0,0,0,0,0,0,0,0,0,0,0,0,0,0,0,0,0,0,0,0,0,0,0,0,0,0,0,0,0,0,0,0,0,0,0,0,0,0,0,0,0,0,0,0,0,0,0,0,0,0,0,0,0,0,0,0,0,0,0,0,0,0,0,0,0,0,0,0,0,0,0,0,0],"id":8,"left_children":[1,3,5,7,9,11,13,15,17,19,21,23,25,-1,-1,27,29,31,33,35,37,39,41,43,45,47,49,-1,51,53,55,57,-1,-1,-1,59,61,-1,63,65,67,-1,-1,69,71,-1,73,-1,75,77,-1,-1,-1,-1,-1,-1,-1,-1,-1,-1,-1,-1,-1,-1,-1,-1,-1,-1,-1,-1,-1,-1,-1,-1,-1,-1,-1,-1,-1],"loss_changes":[3.4719327E2,4.7073895E2,2.9509866E2,1.8647047E3,4.2120734E2,2.0936293E2,1.3504303E1,4.1235184E2,1.6503494E3,4.9898758E2,7.548417E2,1.7787357E2,3.5885376E1,0E0,0E0,3.1075836E1,9.236621E2,1.0122954E3,5.0751507E1,7.8843445E2,4.973123E2,7.2358673E2,4.1871533E2,1.5875423E2,8.298275E2,2.115078E1,3.2717636E1,0E0,9.270325E0,4.8357703E2,8.4440735E1,8.166761E2,0E0,0E0,0E0,4.5565192E2,2.6779824E3,0E0,9.593845E2,8.489901E2,5.668013E2,0E0,0E0,2.9830045E2,5.47244E2,0E0,9.831244E1,0E0,1.5827057E1,2.8690601E1,0E0,0E0,0E0,0E0,0E0,0E0,0E0,0E0,0E0,0E0,0E0,0E0,0E0,0E0,0E0,0E0,0E0,0E0,0E0,0E0,0E0,0E0,0E0,0E0,0E0,0E0,0E0,0E0,0E0],"parents":[2147483647,0,0,1,1,2,2,3,3,4,4,5,5,6,6,7,7,8,8,9,9,10,10,11,11,12,12,15,15,16,16,17,17,18,18,19,19,20,20,21,21,22,22,23,23,24,24,25,25,26,26,28,28,29,29,30,30,31,31,35,35,36,36,38,38,39,39,40,40,43,43,44,44,46,46,48,48,49,49],"right_children":[2,4,6,8,10,12,14,16,18,20,22,24,26,-1,-1,28,30,32,34,36,38,40,42,44,46,48,50,-1,52,54,56,58,-1,-1,-1,60,62,-1,64,66,68,-1,-1,70,72,-1,74,-1,76,78,-1,-1,-1,-1,-1,-1,-1,-1,-1,-1,-1,-1,-1,-1,-1,-1,-1,-1,-1,-1,-1,-1,-1,-1,-1,-1,-1,-1,-1],"split_conditions":[1E-1,1.4087305E2,3.4239255E2,1.161865E2,3.104891E2,1.5832832E1,1.2907834E1,-8.956751E0,2.8120003E0,2.505623E1,2.378453E1,3.449854E1,2E-1,-2.077176E0,-3.8226846E-1,8.587338E0,-2.1255E0,1.3092073E2,1.359474E2,2.2322903E1,-1.4629999E0,1.0440001E1,1.6824998E-1,2.1240763E1,6E-1,1.2224107E1,5.1000004E0,-1.8318501E-1,1.3567355E1,6.3638924E1,-3.609167E-1,-3.7650833E0,1.1533171E1,4.842726E-1,-1.2983167E0,2.8168765E2,2.7241665E-1,-3.062451E0,1.6557498E0,-1.1521333E1,3.3377188E2,6.669352E0,-2.1383701E-1,2.8008054E2,2.1573734E1,5.3368034E0,2.8168765E2,5.200768E-2,1.7143251E1,2.5E0,1.1204793E0,-8.854584E-1,-2.5144722E0,1.7067882E-1,3.8708544E0,-3.1694274E0,-9.3681073E-1,-1.0857903E0,5.884766E0,1.8444262E-1,-8.8923913E-1,4.653709E0,-1.7469774E0,3.8598697E0,-1.371464E0,-6.176609E-1,4.723851E0,-7.313056E-1,1.7978579E0,-1.674629E-1,5.0563437E-1,-2.51875E0,-2.4069946E-1,-1.0412589E0,1.033869E0,2.5177747E-1,1.8960438E0,4.9446264E-1,-2.8703886E-1],"split_indices":[1,3,3,3,3,0,0,0,0,2,2,2,1,0,0,2,0,3,3,2,0,2,0,2,1,2,1,0,3,3,0,0,0,0,0,3,0,0,0,0,3,0,0,3,2,0,3,0,0,1,0,0,0,0,0,0,0,0,0,0,0,0,0,0,0,0,0,0,0,0,0,0,0,0,0,0,0,0,0],"split_type":[0,0,0,0,0,0,0,0,0,0,0,0,0,0,0,0,0,0,0,0,0,0,0,0,0,0,0,0,0,0,0,0,0,0,0,0,0,0,0,0,0,0,0,0,0,0,0,0,0,0,0,0,0,0,0,0,0,0,0,0,0,0,0,0,0,0,0,0,0,0,0,0,0,0,0,0,0,0,0],"sum_hessian":[9.31E2,3.37E2,5.94E2,3.8E1,2.99E2,5.87E2,7E0,2.7E1,1.1E1,2.48E2,5.1E1,5.57E2,3E1,6E0,1E0,7E0,2E1,7E0,4E0,2.23E2,2.5E1,4.8E1,3E0,5.47E2,1E1,5E0,2.5E1,1E0,6E0,1.2E1,8E0,5E0,2E0,2E0,2E0,2.01E2,2.2E1,8E0,1.7E1,1E1,3.8E1,2E0,1E0,3.43E2,2.04E2,2E0,8E0,1E0,4E0,2E1,5E0,2E0,4E0,6E0,6E0,2E0,6E0,2E0,3E0,1.56E2,4.5E1,1.2E1,1E1,3E0,1.4E1,4E0,6E0,2.8E1,1E1,2.68E2,7.5E1,9E0,1.95E2,6E0,2E0,1E0,3E0,1.5E1,5E0],"tree_param":{"num_deleted":"0","num_feature":"4","num_nodes":"79","size_leaf_vector":"1"}},{"base_weights":[1.1252772E-1,1.5567845E-1,-6.5730143E0,1.0297635E-1,6.19696E0,-4.5530894E-1,-2.1841617E0,-2.7398746E-2,2.325003E0,-1.1843165E0,1.0236474E1,1.3007947E0,-2.1735373E-1,4.1386933E0,1.3776392E0,4.0749865E0,-9.7463983E-1,1.7969751E-1,1.2381688E1,9.4951725E-1,-4.283546E-1,2.3407423E0,9.396849E0,3.3481598E-1,3.3484821E0,-2.1687834E-1,1.2197342E0,5.888398E0,-1.0184304E0,-3.003278E-2,6.1152883E0,-8.8928896E-1,-4.476952E-2,-4.4547465E-1,1.2058492E0,3.2487633E0,7.6496434E-1,-6.972501E-2,1.3148751E0,2.3625002E0,4.9670357E-1],"categories":[],"categories_nodes":[],"categories_segments":[],"categories_sizes":[],"default_left":[0,0,0,0,0,0,0,0,0,0,0,0,0,0,0,0,0,0,0,0,0,0,0,0,0,0,0,0,0,0,0,0,0,0,0,0,0,0,0,0,0],"id":9,"left_children":[1,3,5,7,9,-1,-1,11,13,-1,15,17,19,21,23,-1,-1,25,27,29,31,33,35,37,39,-1,-1,-1,-1,-1,-1,-1,-1,-1,-1,-1,-1,-1,-1,-1,-1],"loss_changes":[2.698922E2,2.9450775E2,1.0410919E1,2.665849E2,3.6824744E2,0E0,0E0,2.197811E2,8.1927826E1,0E0,3.149256E2,1.3518557E3,1.8801932E2,1.387208E2,7.0812294E1,0E0,0E0,3.5370694E2,1.2098427E3,2.388754E3,4.5682178E2,9.5881386E1,1.161615E1,5.6127823E1,7.8911606E1,0E0,0E0,0E0,0E0,0E0,0E0,0E0,0E0,0E0,0E0,0E0,0E0,0E0,0E0,0E0,0E0],"parents":[2147483647,0,0,1,1,2,2,3,3,4,4,7,7,8,8,10,10,11,11,12,12,13,13,14,14,17,17,18,18,19,19,20,20,21,21,22,22,23,23,24,24],"right_children":[2,4,6,8,10,-1,-1,12,14,-1,16,18,20,22,24,-1,-1,26,28,30,32,34,36,38,40,-1,-1,-1,-1,-1,-1,-1,-1,-1,-1,-1,-1,-1,-1,-1,-1],"split_conditions":[3.519276E2,3.4593832E2,9.360001E0,1.665575E1,1.1592894E1,-4.5530894E-1,-2.1841617E0,1.1770403E1,1.4512064E1,-1.1843165E0,1.1739083E1,1.1592895E1,1.3779529E2,1.424163E1,1.8568813E1,4.0749865E0,-9.7463983E-1,3.0446002E2,7.934916E0,1.324551E2,1.3896187E1,1.7887E1,1E-1,2.0301582E1,1.8903427E1,-2.1687834E-1,1.2197342E0,5.888398E0,-1.0184304E0,-3.003278E-2,6.1152883E0,-8.8928896E-1,-4.476952E-2,-4.4547465E-1,1.2058492E0,3.2487633E0,7.6496434E-1,-6.972501E-2,1.3148751E0,2.3625002E0,4.9670357E-1],"split_indices":[3,3,2,0,2,0,0,2,2,0,0,2,3,2,2,0,0,3,0,3,2,0,1,0,2,0,0,0,0,0,0,0,0,0,0,0,0,0,0,0,0],"split_type":[0,0,0,0,0,0,0,0,0,0,0,0,0,0,0,0,0,0,0,0,0,0,0,0,0,0,0,0,0,0,0,0,0,0,0,0,0,0,0,0,0],"sum_hessian":[9.31E2,9.26E2,5E0,9.19E2,7E0,1E0,4E0,8.69E2,5E1,2E0,5E0,1.08E2,7.61E2,1.6E1,3.4E1,4E0,1E0,9.9E1,9E0,1.16E2,6.45E2,1.3E1,3E0,2.3E1,1.1E1,8.1E1,1.8E1,6E0,3E0,1.11E2,5E0,6.3E1,5.82E2,4E0,9E0,2E0,1E0,2.1E1,2E0,2E0,9E0],"tree_param":{"num_deleted":"0","num_feature":"4","num_nodes":"41","size_leaf_vector":"1"}},{"base_weights":[9.93477E-2,1.3251153E-1,-5.041022E0,6.892284E-1,-1.8368673E-1,-5.5767307E0,-3.5437146E-1,5.3184617E-1,5.290808E0,2.766458E-3,-1.6697042E0,-3.870126E-1,-1.8977678E0,7.137966E-1,-5.2891674E0,6.372185E0,-8.284438E-1,-2.0583199E-1,5.912902E0,-6.1631618E0,-5.570254E-1,3.7824076E-1,4.03317E0,-7.066432E0,1.2132607E0,-7.111206E-1,8.231901E0,-1.6676884E0,1.3282837E-1,1.52222595E1,-1.3950763E0,-2.3521512E0,-9.093721E0,9.6207075E0,-1.5636581E0,6.036268E-1,-1.4510109E-1,-9.091831E-1,2.060535E0,-2.0769769E-1,-2.3634346E0,8.3296396E-2,4.6267092E-1,-3.9351827E-1,7.3513985E-2,2.960546E0,-4.8362848E-1,-5.7086474E-1,3.101363E0,2.9777951E0,-5.502284E-2,7.6813664E0,1.1615915E0,-8.352594E-1,5.1958066E-1,5.6079198E-2,-8.4194595E-1,-3.7238712E0,-1.5915279E-1,-1.0867802E0,5.8971343E0,-8.689595E-1,5.218446E-1],"categories":[],"categories_nodes":[],"categories_segments":[],"categories_sizes":[],"default_left":[0,0,0,0,0,0,0,0,0,0,0,0,0,0,0,0,0,0,0,0,0,0,0,0,0,0,0,0,0,0,0,0,0,0,0,0,0,0,0,0,0,0,0,0,0,0,0,0,0,0,0,0,0,0,0,0,0,0,0,0,0,0,0],"id":10,"left_children":[1,3,5,7,9,11,-1,13,15,17,19,-1,-1,21,23,25,-1,27,29,31,33,35,37,39,41,43,45,47,49,51,53,55,57,59,61,-1,-1,-1,-1,-1,-1,-1,-1,-1,-1,-1,-1,-1,-1,-1,-1,-1,-1,-1,-1,-1,-1,-1,-1,-1,-1,-1,-1],"loss_changes":[1.5955006E2,1.6330911E2,5.8188934E0,2.4051962E2,1.6403166E2,7.8964386E0,0E0,3.490537E2,1.1337976E2,6.509264E2,3.2655212E2,0E0,0E0,3.5156027E2,1.24138794E2,1.3758331E2,0E0,2.5270863E2,1.2458226E3,1.23799286E2,5.682865E2,4.0795227E2,6.0162146E2,3.593579E1,4.9516582E-1,2.0442762E0,1.4479315E2,2.9074103E2,1.2870613E3,8.4359607E2,5.2603844E1,8.599781E0,1.9237488E2,7.3578595E2,2.2517184E2,0E0,0E0,0E0,0E0,0E0,0E0,0E0,0E0,0E0,0E0,0E0,0E0,0E0,0E0,0E0,0E0,0E0,0E0,0E0,0E0,0E0,0E0,0E0,0E0,0E0,0E0,0E0,0E0],"parents":[2147483647,0,0,1,1,2,2,3,3,4,4,5,5,7,7,8,8,9,9,10,10,13,13,14,14,15,15,17,17,18,18,19,19,20,20,21,21,22,22,23,23,24,24,25,25,26,26,27,27,28,28,29,29,30,30,31,31,32,32,33,33,34,34],"right_children":[2,4,6,8,10,12,-1,14,16,18,20,-1,-1,22,24,26,-1,28,30,32,34,36,38,40,42,44,46,48,50,52,54,56,58,60,62,-1,-1,-1,-1,-1,-1,-1,-1,-1,-1,-1,-1,-1,-1,-1,-1,-1,-1,-1,-1,-1,-1,-1,-1,-1,-1,-1,-1],"split_conditions":[3.519276E2,1E-1,1.6000003E0,3.3483215E2,3.101051E2,9.360001E0,-3.5437146E-1,3.2591193E2,1.1739083E1,3.0519757E2,3E-1,-3.870126E-1,-1.8977678E0,3.1147076E2,8.337E0,-1.2846333E1,-8.284438E-1,-4.0255003E0,1.5703331E0,3.166284E2,4E-1,-1.7046667E0,-5.283833E0,8.909545E0,1.2907834E1,7.729527E0,1.5273505E1,3.0319181E1,-3.5067503E0,3.077757E2,2.3966375E1,-1.1521333E1,9.745001E-1,1.1841756E1,3.281636E2,6.036268E-1,-1.4510109E-1,-9.091831E-1,2.060535E0,-2.0769769E-1,-2.3634346E0,8.3296396E-2,4.6267092E-1,-3.9351827E-1,7.3513985E-2,2.960546E0,-4.8362848E-1,-5.7086474E-1,3.101363E0,2.9777951E0,-5.502284E-2,7.6813664E0,1.1615915E0,-8.352594E-1,5.1958066E-1,5.6079198E-2,-8.4194595E-1,-3.7238712E0,-1.5915279E-1,-1.0867802E0,5.8971343E0,-8.689595E-1,5.218446E-1],"split_indices":[3,1,1,3,3,2,0,3,0,3,1,0,0,3,0,0,0,0,0,3,1,0,0,2,0,2,2,2,0,3,2,0,0,2,3,0,0,0,0,0,0,0,0,0,0,0,0,0,0,0,0,0,0,0,0,0,0,0,0,0,0,0,0],"split_type":[0,0,0,0,0,0,0,0,0,0,0,0,0,0,0,0,0,0,0,0,0,0,0,0,0,0,0,0,0,0,0,0,0,0,0,0,0,0,0,0,0,0,0,0,0,0,0,0,0,0,0,0,0,0,0,0,0,0,0,0,0,0,0],"sum_hessian":[9.31E2,9.26E2,5E0,3.35E2,5.91E2,4E0,1E0,3.25E2,1E1,5.26E2,6.5E1,1E0,3E0,3.16E2,9E0,9E0,1E0,5.09E2,1.7E1,1.2E1,5.3E1,2.88E2,2.8E1,7E0,2E0,2E0,7E0,9.5E1,4.14E2,7E0,1E1,6E0,6E0,4E0,4.9E1,9.9E1,1.89E2,8E0,2E1,1E0,6E0,1E0,1E0,1E0,1E0,6E0,1E0,9.4E1,1E0,1.2E1,4.02E2,3E0,4E0,7E0,3E0,1E0,5E0,4E0,2E0,2E0,2E0,3.5E1,1.4E1],"tree_param":{"num_deleted":"0","num_feature":"4","num_nodes":"63","size_leaf_vector":"1"}},{"base_weights":[8.247164E-2,-5.3960327E-2,1.3594681E0,-8.35214E-2,4.08373E0,1.4711626E0,-7.110184E-1,-3.6310136E-2,-4.9771514E0,-3.2961555E0,3.7687006E0,2.1389875E0,8.430816E-1,-6.380349E-2,5.66389E0,-2.2235713E0,-6.8942237E-1,1.645807E-1,-1.4281828E0,1.0202906E0,3.7241127E0,-2.58176E0,1.4072477E0,1.1577379E0,-1.6591439E-1,2.3942778E0,-1.9308259E-1,-9.5795447E-1,3.628674E-1,1.7040863E0,1.6549592E-1,6.413231E-1,4.623331E0,2.624222E-1,-3.3036335E0,2.8976915E0,-1.1667078E-2,-1.7891407E-2,3.8806934E0,-8.413826E-1,-1.1804325E-2,2.4473554E-1,-9.3819726E-1,-3.4974518E-1,1.1804827E0,2.0160744E0,3.17066E-1,-7.644883E-2,-1.1587285E0,1.2839376E0,2.1987756E-1,-5.783759E-1,7.4418837E-1],"categories":[],"categories_nodes":[],"categories_segments":[],"categories_sizes":[],"default_left":[0,0,0,0,0,0,0,0,0,0,0,0,0,0,0,0,0,0,0,0,0,0,0,0,0,0,0,0,0,0,0,0,0,0,0,0,0,0,0,0,0,0,0,0,0,0,0,0,0,0,0,0,0],"id":11,"left_children":[1,3,5,7,9,11,-1,13,15,17,-1,19,21,23,25,-1,27,-1,-1,29,31,33,35,37,39,-1,-1,-1,-1,-1,41,43,45,-1,47,49,51,-1,-1,-1,-1,-1,-1,-1,-1,-1,-1,-1,-1,-1,-1,-1,-1],"loss_changes":[1.6244933E2,1.03452286E2,4.0977875E1,1.9342616E2,4.168342E2,3.5108078E1,0E0,1.3059369E2,7.8406555E1,2.513356E1,0E0,7.067789E1,9.44456E1,1.0347075E2,6.3595383E1,0E0,2.2880693E1,0E0,0E0,1.02626785E2,4.4160675E1,2.0355919E1,8.6741135E1,9.1841235E2,2.5537723E2,0E0,0E0,0E0,0E0,0E0,5.180079E1,3.4347584E1,9.011841E1,0E0,9.237671E0,5.670172E1,1.09851494E2,0E0,0E0,0E0,0E0,0E0,0E0,0E0,0E0,0E0,0E0,0E0,0E0,0E0,0E0,0E0,0E0],"parents":[2147483647,0,0,1,1,2,2,3,3,4,4,5,5,7,7,8,8,9,9,11,11,12,12,13,13,14,14,16,16,19,19,20,20,21,21,22,22,23,23,24,24,30,30,31,31,32,32,34,34,35,35,36,36],"right_children":[2,4,6,8,10,12,-1,14,16,18,-1,20,22,24,26,-1,28,-1,-1,30,32,34,36,38,40,-1,-1,-1,-1,-1,42,44,46,-1,48,50,52,-1,-1,-1,-1,-1,-1,-1,-1,-1,-1,-1,-1,-1,-1,-1,-1],"split_conditions":[1.5120332E1,3.9003136E1,3.274543E2,3.5208294E1,2.8008054E2,1.618199E1,-7.110184E-1,3.449854E1,1.3000002E0,-9.4216657E-1,3.7687006E0,1.7887E1,1.6595179E1,1.0464798E1,-4.8799992E-1,-2.2235713E0,-4.0674987E-1,1.645807E-1,-1.4281828E0,1.52369995E1,1.4990503E2,1.5203667E1,1.6743822E2,1.0365251E1,1.1592894E1,2.3942778E0,-1.9308259E-1,-9.5795447E-1,3.628674E-1,1.7040863E0,1.7326584E1,1.5815435E1,1E-1,2.624222E-1,1.624394E1,1.7589083E1,1.9589362E2,-1.7891407E-2,3.8806934E0,-8.413826E-1,-1.1804325E-2,2.4473554E-1,-9.3819726E-1,-3.4974518E-1,1.1804827E0,2.0160744E0,3.17066E-1,-7.644883E-2,-1.1587285E0,1.2839376E0,2.1987756E-1,-5.783759E-1,7.4418837E-1],"split_indices":[0,2,3,2,3,2,0,2,1,0,0,0,2,2,0,0,0,0,0,0,3,0,3,2,2,0,0,0,0,0,0,2,1,0,2,0,3,0,0,0,0,0,0,0,0,0,0,0,0,0,0,0,0],"split_type":[0,0,0,0,0,0,0,0,0,0,0,0,0,0,0,0,0,0,0,0,0,0,0,0,0,0,0,0,0,0,0,0,0,0,0,0,0,0,0,0,0,0,0,0,0,0,0,0,0,0,0,0,0],"sum_hessian":[9.31E2,8.42E2,8.9E1,8.37E2,5E0,8.7E1,2E0,8.3E2,7E0,3E0,2E0,4.1E1,4.6E1,8.27E2,3E0,4E0,3E0,1E0,2E0,2.5E1,1.6E1,6E0,4E1,6.3E1,7.64E2,2E0,1E0,1E0,2E0,3E0,2.2E1,4E0,1.2E1,1E0,5E0,1.9E1,2.1E1,5.8E1,5E0,3.4E1,7.3E2,1.9E1,3E0,3E0,1E0,7E0,5E0,1E0,4E0,1.1E1,8E0,1.2E1,9E0],"tree_param":{"num_deleted":"0","num_feature":"4","num_nodes":"53","size_leaf_vector":"1"}},{"base_weights":[6.744867E-2,3.9262292E-1,-2.772557E-1,2.728496E-1,1.4577436E1,2.9015145E0,-6.0063213E-1,3.068516E-2,2.8473132E0,1.8992447E1,1.9986077E-1,1.4276109E0,1.0067087E1,-5.101456E0,-2.2103372E-1,-1.0918494E0,8.211446E-1,8.1417885E0,-5.203372E-1,6.0184395E-1,7.944757E0,3.5562057E0,-5.3533077E0,-5.6347984E-1,7.9860945E0,-5.7557E0,2.2770166E0,4.809003E0,-4.1179317E-1,6.202702E-1,-3.4123783E0,3.003467E0,-2.3710963E-1,1.7922096E1,2.0669117E0,-3.7230246E0,4.1854205E0,8.289229E0,1.5838059E0,-5.84131E0,-2.1739334E-1,-1.8035536E0,-7.551791E0,-9.9458E0,1.4111204E1,-2.8195899E0,2.2792497E-3,-9.7756475E-1,4.7138083E-1,-3.1475115E-1,-1.3789736E0,2.7270883E-1,2.0832994E0,-4.7922078E-1,1.2150623E-1,6.302625E0,3.7332574E-1,-9.784053E-1,1.3418038E0,-2.165493E0,9.916508E-1,2.3227434E0,-4.8946306E-1,9.875621E-1,6.4906087E0,-2.0980726E-1,1.2495666E0,-1.8722147E0,-4.568207E-1,-1.69772E-1,-9.526646E-1,-1.6088337E0,-3.1315773E0,-3.4167626E0,-4.0931398E-1,2.040394E0,1.088855E1,9.622052E-2,-1.661348E0,3.429871E0,-8.838825E-2],"categories":[],"categories_nodes":[],"categories_segments":[],"categories_sizes":[],"default_left":[0,0,0,0,0,0,0,0,0,0,0,0,0,0,0,0,0,0,0,0,0,0,0,0,0,0,0,0,0,0,0,0,0,0,0,0,0,0,0,0,0,0,0,0,0,0,0,0,0,0,0,0,0,0,0,0,0,0,0,0,0,0,0,0,0,0,0,0,0,0,0,0,0,0,0,0,0,0,0,0,0],"id":12,"left_children":[1,3,5,7,9,11,13,15,17,19,-1,21,23,25,27,29,31,33,35,-1,-1,37,39,-1,-1,41,-1,43,45,47,49,51,53,55,57,59,61,63,65,67,-1,69,71,73,75,77,79,-1,-1,-1,-1,-1,-1,-1,-1,-1,-1,-1,-1,-1,-1,-1,-1,-1,-1,-1,-1,-1,-1,-1,-1,-1,-1,-1,-1,-1,-1,-1,-1,-1,-1],"loss_changes":[1.045758E2,8.1152435E2,4.673993E2,2.972952E2,2.330202E2,4.2920535E2,7.0277673E2,3.8865457E2,7.3526404E2,3.2855823E2,0E0,5.386553E2,1.4341389E3,3.0939313E2,3.6756015E2,7.2123376E2,5.942414E2,9.135834E2,4.0743027E2,0E0,0E0,2.4826309E2,1.6096344E1,0E0,0E0,2.0643091E2,0E0,2.0618772E3,3.6690326E2,3.924392E2,2.1066284E2,6.8701447E2,1.5263344E2,2.8272522E2,1.5559114E2,4.169275E2,2.4023622E2,4.623421E2,1.2668264E2,4.295929E0,0E0,1.6881435E1,7.672412E1,5.8779724E1,1.2126063E3,4.6272806E2,1.0724248E3,0E0,0E0,0E0,0E0,0E0,0E0,0E0,0E0,0E0,0E0,0E0,0E0,0E0,0E0,0E0,0E0,0E0,0E0,0E0,0E0,0E0,0E0,0E0,0E0,0E0,0E0,0E0,0E0,0E0,0E0,0E0,0E0,0E0,0E0],"parents":[2147483647,0,0,1,1,2,2,3,3,4,4,5,5,6,6,7,7,8,8,9,9,11,11,12,12,13,13,14,14,15,15,16,16,17,17,18,18,21,21,22,22,25,25,27,27,28,28,29,29,30,30,31,31,32,32,33,33,34,34,35,35,36,36,37,37,38,38,39,39,41,41,42,42,43,43,44,44,45,45,46,46],"right_children":[2,4,6,8,10,12,14,16,18,20,-1,22,24,26,28,30,32,34,36,-1,-1,38,40,-1,-1,42,-1,44,46,48,50,52,54,56,58,60,62,64,66,68,-1,70,72,74,76,78,80,-1,-1,-1,-1,-1,-1,-1,-1,-1,-1,-1,-1,-1,-1,-1,-1,-1,-1,-1,-1,-1,-1,-1,-1,-1,-1,-1,-1,-1,-1,-1,-1,-1,-1],"split_conditions":[1.8E1,1.7902534E1,-5.283833E0,1.7283749E1,-4.740083E0,-5.7775836E0,-3.5838337E0,-7.2550017E-1,1.791013E2,-1.5740082E1,1.9986077E-1,2.736254E2,1.69365E2,3.3079376E1,-2.7296667E0,1.3779114E1,4.591167E0,1.7462782E1,4.29325E0,6.0184395E-1,7.944757E0,1.9130875E1,2.3966375E1,-5.6347984E-1,7.9860945E0,1.8330698E2,2.2770166E0,2.2657131E1,6.2000085E-2,6.3638924E1,1.04364586E2,2.6223993E2,1.158075E1,-1.7046667E0,1.0621463E2,2E-1,1.2907834E1,8E-1,1.7475983E2,3.145206E2,-2.1739334E-1,7.300001E0,2.2571884E1,3.123221E2,-2.8046668E0,-9.4216657E-1,3.2866672E-1,-9.7756475E-1,4.7138083E-1,-3.1475115E-1,-1.3789736E0,2.7270883E-1,2.0832994E0,-4.7922078E-1,1.2150623E-1,6.302625E0,3.7332574E-1,-9.784053E-1,1.3418038E0,-2.165493E0,9.916508E-1,2.3227434E0,-4.8946306E-1,9.875621E-1,6.4906087E0,-2.0980726E-1,1.2495666E0,-1.8722147E0,-4.568207E-1,-1.69772E-1,-9.526646E-1,-1.6088337E0,-3.1315773E0,-3.4167626E0,-4.0931398E-1,2.040394E0,1.088855E1,9.622052E-2,-1.661348E0,3.429871E0,-8.838825E-2],"split_indices":[2,2,0,2,0,0,0,0,3,0,0,3,3,2,0,2,0,2,0,0,0,2,2,0,0,3,0,2,0,3,3,3,0,0,3,1,0,1,3,3,0,1,2,3,0,0,0,0,0,0,0,0,0,0,0,0,0,0,0,0,0,0,0,0,0,0,0,0,0,0,0,0,0,0,0,0,0,0,0,0,0],"split_type":[0,0,0,0,0,0,0,0,0,0,0,0,0,0,0,0,0,0,0,0,0,0,0,0,0,0,0,0,0,0,0,0,0,0,0,0,0,0,0,0,0,0,0,0,0,0,0,0,0,0,0,0,0,0,0,0,0,0,0,0,0,0,0,0,0,0,0,0,0,0,0,0,0,0,0,0,0,0,0,0,0],"sum_hessian":[9.31E2,4.79E2,4.52E2,4.76E2,3E0,4.1E1,4.11E2,4.36E2,4E1,2E0,1E0,3.5E1,6E0,3.1E1,3.8E2,1.8E2,2.56E2,1.5E1,2.5E1,1E0,1E0,2.7E1,8E0,4E0,2E0,3E1,1E0,1.3E1,3.67E2,1.04E2,7.6E1,8.3E1,1.73E2,5E0,1E1,1.5E1,1E1,7E0,2E1,7E0,1E0,1E1,2E1,5E0,8E0,5.3E1,3.14E2,2E1,8.4E1,2.6E1,5E1,5.5E1,2.8E1,5.5E1,1.18E2,4E0,1E0,3E0,7E0,1E1,5E0,6E0,4E0,6E0,1E0,1.1E1,9E0,6E0,1E0,6E0,4E0,1.3E1,7E0,4E0,1E0,7E0,1E0,2.5E1,2.8E1,7E0,3.07E2],"tree_param":{"num_deleted":"0","num_feature":"4","num_nodes":"81","size_leaf_vector":"1"}},{"base_weights":[8.683981E-2,1.1318321E-1,-3.9976888E0,8.339737E-2,3.524406E0,-4.4319954E0,-2.7392352E-1,1.4534976E-1,-2.3390648E0,-9.6863455E-1,6.3135986E0,-3.9698413E-1,-1.4635062E0,9.3642086E-2,2.532581E0,-4.2803497E0,-2.028578E-1,8.397319E0,-6.1575055E-1,1.4009361E-1,-4.417399E0,1.1237632E1,1.9803208E-1,-2.3517802E0,5.8511275E-1,1.4869436E0,-8.5979056E-1,7.366482E-1,2.7806706E0,3.0799197E-2,2.4709969E0,-1.4991844E0,3.324881E-2,7.2233596E0,-3.2052016E-1,-6.249778E-1,3.2334146E0,-1.3125864E-1,8.547481E-1,6.857768E-1,-6.158867E-1],"categories":[],"categories_nodes":[],"categories_segments":[],"categories_sizes":[],"default_left":[0,0,0,0,0,0,0,0,0,0,0,0,0,0,0,0,0,0,0,0,0,0,0,0,0,0,0,0,0,0,0,0,0,0,0,0,0,0,0,0,0],"id":13,"left_children":[1,3,5,7,9,11,-1,13,15,-1,17,-1,-1,19,21,23,25,27,-1,29,31,33,35,-1,37,39,-1,-1,-1,-1,-1,-1,-1,-1,-1,-1,-1,-1,-1,-1,-1],"loss_changes":[1.00736015E2,9.389493E1,3.9912415E0,1.3841109E2,1.7107278E2,4.825821E-1,0E0,1.106103E2,9.451237E1,0E0,1.2183119E2,0E0,0E0,1.8501819E2,3.8389957E2,2.1237624E2,5.8263073E1,3.1342468E0,0E0,2.634151E2,2.4186401E1,6.5777405E2,4.086311E2,0E0,1.5138443E1,2.7319344E1,0E0,0E0,0E0,0E0,0E0,0E0,0E0,0E0,0E0,0E0,0E0,0E0,0E0,0E0,0E0],"parents":[2147483647,0,0,1,1,2,2,3,3,4,4,5,5,7,7,8,8,10,10,13,13,14,14,15,15,16,16,17,17,19,19,20,20,21,21,22,22,24,24,25,25],"right_children":[2,4,6,8,10,12,-1,14,16,-1,18,-1,-1,20,22,24,26,28,-1,30,32,34,36,-1,38,40,-1,-1,-1,-1,-1,-1,-1,-1,-1,-1,-1,-1,-1,-1,-1],"split_conditions":[3.519276E2,3.4593832E2,3.2866672E-1,3.3025525E2,1.1592894E1,9.360001E0,-2.7392352E-1,3.2392975E2,3.3483215E2,-9.6863455E-1,1.1739083E1,-3.9698413E-1,-1.4635062E0,3.221324E2,3.2472842E2,1.3896187E1,3.4239255E2,-9.467167E0,-6.1575055E-1,3.2096448E2,8.895333E0,2.7241665E-1,1.9406637E1,-2.3517802E0,1.379325E1,5.1E0,-8.5979056E-1,7.366482E-1,2.7806706E0,3.0799197E-2,2.4709969E0,-1.4991844E0,3.324881E-2,7.2233596E0,-3.2052016E-1,-6.249778E-1,3.2334146E0,-1.3125864E-1,8.547481E-1,6.857768E-1,-6.158867E-1],"split_indices":[3,3,0,3,2,2,0,3,3,0,0,0,0,3,3,2,3,0,0,3,0,0,2,0,0,1,0,0,0,0,0,0,0,0,0,0,0,0,0,0,0],"split_type":[0,0,0,0,0,0,0,0,0,0,0,0,0,0,0,0,0,0,0,0,0,0,0,0,0,0,0,0,0,0,0,0,0,0,0,0,0,0,0,0,0],"sum_hessian":[9.31E2,9.26E2,5E0,9.19E2,7E0,4E0,1E0,8.97E2,2.2E1,2E0,5E0,1E0,3E0,8.79E2,1.8E1,1.1E1,1.1E1,4E0,1E0,8.71E2,8E0,3E0,1.5E1,6E0,5E0,7E0,4E0,1E0,3E0,8.68E2,3E0,7E0,1E0,1E0,2E0,1.3E1,2E0,4E0,1E0,6E0,1E0],"tree_param":{"num_deleted":"0","num_feature":"4","num_nodes":"41","size_leaf_vector":"1"}},{"base_weights":[6.929357E-2,-1.8719326E-4,1.221629E0,-2.2771234E-2,3.2933497E0,1.7560996E0,-1.2409037E-1,1.2791687E-2,-3.8785017E0,-2.6261697E0,3.026478E0,4.033183E0,9.103431E-1,-8.216237E-1,8.90113E-1,-6.0187675E-2,1.6534954E0,-1.8148962E0,-1.9493556E-1,1.208406E-1,-1.1310284E0,5.621938E0,2.4456596E-1,-8.457079E-2,2.5460722E0,6.7710906E-1,-7.3673356E-1,1.426643E0,-3.0080795E-1,2.9160013E-2,-2.0365744E0,7.657379E0,2.4444117E-1,-5.69679E-1,3.0181178E-1,7.7426634E0,2.1341705E-1,-3.6350557E-1,1.1338781E0,-8.160209E-1,2.8623724E0,1.7801555E0,1.1339155E0,-1.997736E-1,1.5150976E0,-8.018589E-2,5.750841E-1,-4.443352E-1,3.089716E-1,7.27918E-4,1.2789841E0,-8.8231254E-1,6.391963E-1,-9.728981E-1,3.7998383E0,1.2274336E0,-3.1442353E-1,2.6040406E0,5.989168E-1,1.3904E-1,-4.3002322E-2,4.191536E-1,9.109154E-2,-7.891408E-1,3.9817092E-1,1.1860936E0,-6.1716843E-2,-2.9720432E-1,9.095188E-1,7.38588E-1,-1.9882336E-1],"categories":[],"categories_nodes":[],"categories_segments":[],"categories_sizes":[],"default_left":[0,0,0,0,0,0,0,0,0,0,0,0,0,0,0,0,0,0,0,0,0,0,0,0,0,0,0,0,0,0,0,0,0,0,0,0,0,0,0,0,0,0,0,0,0,0,0,0,0,0,0,0,0,0,0,0,0,0,0,0,0,0,0,0,0,0,0,0,0,0,0],"id":14,"left_children":[1,3,5,7,9,11,13,15,17,19,-1,21,23,25,27,29,31,-1,33,-1,-1,35,37,39,41,43,-1,45,47,49,51,53,55,-1,-1,57,59,-1,61,63,65,-1,67,-1,69,-1,-1,-1,-1,-1,-1,-1,-1,-1,-1,-1,-1,-1,-1,-1,-1,-1,-1,-1,-1,-1,-1,-1,-1,-1,-1],"loss_changes":[7.462095E1,6.55306E1,3.833802E1,1.2003052E2,2.678291E2,6.951105E1,1.2050388E1,1.04031685E2,6.280137E1,1.5378262E1,0E0,5.8816895E1,4.741021E1,2.6154442E1,4.9018993E0,1.4697859E2,3.1114075E2,0E0,1.0096216E1,0E0,0E0,7.86375E1,6.5541506E0,4.329105E1,4.5896347E1,7.7615395E0,0E0,4.6650753E0,6.2373705E0,9.0204765E1,1.4195476E2,4.232567E2,1.584303E2,0E0,0E0,9.605896E0,3.3405545E-1,0E0,2.3157024E-1,6.571253E1,1.4205868E1,0E0,3.929227E1,0E0,9.8801155E0,0E0,0E0,0E0,0E0,0E0,0E0,0E0,0E0,0E0,0E0,0E0,0E0,0E0,0E0,0E0,0E0,0E0,0E0,0E0,0E0,0E0,0E0,0E0,0E0,0E0,0E0],"parents":[2147483647,0,0,1,1,2,2,3,3,4,4,5,5,6,6,7,7,8,8,9,9,11,11,12,12,13,13,14,14,15,15,16,16,18,18,21,21,22,22,23,23,24,24,25,25,27,27,28,28,29,29,30,30,31,31,32,32,35,35,36,36,38,38,39,39,40,40,42,42,44,44],"right_children":[2,4,6,8,10,12,14,16,18,20,-1,22,24,26,28,30,32,-1,34,-1,-1,36,38,40,42,44,-1,46,48,50,52,54,56,-1,-1,58,60,-1,62,64,66,-1,68,-1,70,-1,-1,-1,-1,-1,-1,-1,-1,-1,-1,-1,-1,-1,-1,-1,-1,-1,-1,-1,-1,-1,-1,-1,-1,-1,-1],"split_conditions":[1.665575E1,3.9003136E1,2.0885689E2,3.5208294E1,2.8008054E2,1.4512064E1,1.4168641E1,2.9776264E1,1.3000002E0,-9.4216657E-1,3.026478E0,3E-1,1.8568813E1,1.2287555E1,1.7887E1,2.7475807E1,2E-1,-1.8148962E0,-4.0674987E-1,1.208406E-1,-1.1310284E0,1.8924501E1,8.000001E-1,1.9878666E1,1.8903427E1,1.14862E1,-7.3673356E-1,1.7030752E1,1E-1,2.7322077E1,8.2E0,3.0802622E1,3.0613232E1,-5.69679E-1,3.0181178E-1,1E-1,1.9284918E1,-3.6350557E-1,1.6741167E1,3E-1,1.6053335E1,1.7801555E0,2.420314E1,-1.997736E-1,1E-1,-8.018589E-2,5.750841E-1,-4.443352E-1,3.089716E-1,7.27918E-4,1.2789841E0,-8.8231254E-1,6.391963E-1,-9.728981E-1,3.7998383E0,1.2274336E0,-3.1442353E-1,2.6040406E0,5.989168E-1,1.3904E-1,-4.3002322E-2,4.191536E-1,9.109154E-2,-7.891408E-1,3.9817092E-1,1.1860936E0,-6.1716843E-2,-2.9720432E-1,9.095188E-1,7.38588E-1,-1.9882336E-1],"split_indices":[0,2,3,2,3,2,2,2,1,0,0,1,2,2,0,2,1,0,0,0,0,0,1,0,2,2,0,0,1,2,1,2,2,0,0,1,0,0,0,1,2,0,2,0,1,0,0,0,0,0,0,0,0,0,0,0,0,0,0,0,0,0,0,0,0,0,0,0,0,0,0],"split_type":[0,0,0,0,0,0,0,0,0,0,0,0,0,0,0,0,0,0,0,0,0,0,0,0,0,0,0,0,0,0,0,0,0,0,0,0,0,0,0,0,0,0,0,0,0,0,0,0,0,0,0,0,0,0,0,0,0,0,0,0,0,0,0,0,0,0,0,0,0,0,0],"sum_hessian":[9.31E2,8.79E2,5.2E1,8.74E2,5E0,3.7E1,1.5E1,8.67E2,7E0,3E0,2E0,9E0,2.8E1,9E0,6E0,8.31E2,3.6E1,4E0,3E0,1E0,2E0,6E0,3E0,1.8E1,1E1,5E0,4E0,4E0,2E0,7.96E2,3.5E1,6E0,3E1,1E0,2E0,4E0,2E0,1E0,2E0,1.5E1,3E0,2E0,8E0,2E0,3E0,1E0,3E0,1E0,1E0,7.92E2,4E0,2.9E1,6E0,2E0,4E0,7E0,2.3E1,3E0,1E0,1E0,1E0,1E0,1E0,8E0,7E0,2E0,1E0,4E0,4E0,2E0,1E0],"tree_param":{"num_deleted":"0","num_feature":"4","num_nodes":"71","size_leaf_vector":"1"}},{"base_weights":[6.0570262E-2,2.0528525E-1,-4.2299223E-1,1.4719866E-1,1.0536942E1,-1.1528516E0,9.181469E-2,1.8518701E-1,-4.372622E0,-1.6312597E0,5.3022833E0,-2.012349E0,-3.4197432E-1,4.740201E0,-9.789056E-2,1.1576525E-1,4.2135725E0,-2.254042E0,1.2727194E0,-8.780481E-1,-2.7939236E0,9.880909E-1,-1.8983252E0,2.4245997E-1,7.092135E0,2.6614032E0,-4.201692E-1,2.1637565E-1,-3.1428165E0,4.74996E0,3.0632678E-1,5.428126E-1,2.9911138E-2,3.639805E-1,-3.0592372E0,6.9065094E-2,-2.9295218E0,-7.8465134E-1,5.0748425E0,-3.3885787E0,6.307719E-1,2.8951104E0,2.9635048E-1,4.492042E-1,4.381169E0,-9.647788E-1,1.397392E0,3.3533476E-2,6.7816854E-1,-1.0787735E0,8.8786244E-1,-1.4883076E0,4.3284395E-1,3.0632037E-1,-4.1091993E-1,-1.1332859E0,1.876585E-1,2.0239163E-2,-9.1882765E-1,4.3807632E-1,-5.7992667E-1,2.3211925E0,1.4341486E-1,-1.3496686E0,-6.815577E-1,-3.2615766E-1,3.830796E-1,-6.788734E-1,6.264378E-1,-4.570414E-1,4.177415E-1,7.823766E-1,-1.4712422E-1],"categories":[],"categories_nodes":[],"categories_segments":[],"categories_sizes":[],"default_left":[0,0,0,0,0,0,0,0,0,0,0,0,0,0,0,0,0,0,0,0,0,0,0,0,0,0,0,0,0,0,0,0,0,0,0,0,0,0,0,0,0,0,0,0,0,0,0,0,0,0,0,0,0,0,0,0,0,0,0,0,0,0,0,0,0,0,0,0,0,0,0,0,0],"id":15,"left_children":[1,3,5,7,9,11,13,15,17,-1,-1,19,21,23,25,27,29,-1,31,33,35,37,39,-1,41,43,45,47,49,-1,51,-1,-1,53,55,-1,57,59,61,63,65,-1,-1,67,-1,69,71,-1,-1,-1,-1,-1,-1,-1,-1,-1,-1,-1,-1,-1,-1,-1,-1,-1,-1,-1,-1,-1,-1,-1,-1,-1,-1],"loss_changes":[6.530702E1,4.2934283E2,8.088924E1,1.23575615E2,5.521651E2,6.1340088E1,1.12455574E2,1.9806909E2,1.1594959E2,0E0,0E0,3.5668045E1,9.916798E1,4.0507187E1,1.1049739E2,2.2984521E2,5.399587E2,0E0,1.7081156E0,5.2586395E1,1.0926132E1,1.9234564E2,8.505532E1,0E0,3.731569E1,3.3688907E2,1.1122278E2,1.4492876E2,6.870615E1,0E0,6.702057E1,0E0,0E0,1.6208208E1,2.0892502E1,0E0,9.79007E0,5.1807343E1,9.421159E1,7.137909E0,1.1378988E1,0E0,0E0,5.8064587E1,0E0,1.1538151E2,6.069534E1,0E0,0E0,0E0,0E0,0E0,0E0,0E0,0E0,0E0,0E0,0E0,0E0,0E0,0E0,0E0,0E0,0E0,0E0,0E0,0E0,0E0,0E0,0E0,0E0,0E0,0E0],"parents":[2147483647,0,0,1,1,2,2,3,3,4,4,5,5,6,6,7,7,8,8,11,11,12,12,13,13,14,14,15,15,16,16,18,18,19,19,20,20,21,21,22,22,24,24,25,25,26,26,27,27,28,28,30,30,33,33,34,34,36,36,37,37,38,38,39,39,40,40,43,43,45,45,46,46],"right_children":[2,4,6,8,10,12,14,16,18,-1,-1,20,22,24,26,28,30,-1,32,34,36,38,40,-1,42,44,46,48,50,-1,52,-1,-1,54,56,-1,58,60,62,64,66,-1,-1,68,-1,70,72,-1,-1,-1,-1,-1,-1,-1,-1,-1,-1,-1,-1,-1,-1,-1,-1,-1,-1,-1,-1,-1,-1,-1,-1,-1,-1],"split_conditions":[2.7E0,2.6999998E0,4.9E0,2.6E0,2.0859862E2,1.944352E2,4.9999995E0,2.3999999E0,1.7484317E2,-1.6312597E0,5.3022833E0,3.3E0,2.846514E2,-9.4216657E-1,1.35515E1,2.1E0,3.2866672E-1,-2.254042E0,-1.6716667E-1,1.6222778E2,-9.8005E0,2.6033698E2,1.253075E1,2.4245997E-1,3.2890832E0,1.337825E1,1.31224165E1,1.7000002E0,3.3818928E1,4.74996E0,1.0691453E1,5.428126E-1,2.9911138E-2,2.3910208E1,1.7767099E2,6.9065094E-2,8.909545E0,2.0885689E2,4.2999997E0,1.9483284E1,2.9982602E2,2.8951104E0,2.9635048E-1,6.2999997E0,4.381169E0,2.6368616E1,1.6088875E2,3.3533476E-2,6.7816854E-1,-1.0787735E0,8.8786244E-1,-1.4883076E0,4.3284395E-1,3.0632037E-1,-4.1091993E-1,-1.1332859E0,1.876585E-1,2.0239163E-2,-9.1882765E-1,4.3807632E-1,-5.7992667E-1,2.3211925E0,1.4341486E-1,-1.3496686E0,-6.815577E-1,-3.2615766E-1,3.830796E-1,-6.788734E-1,6.264378E-1,-4.570414E-1,4.177415E-1,7.823766E-1,-1.4712422E-1],"split_indices":[1,1,1,1,3,3,1,1,3,0,0,1,3,0,2,1,0,0,0,3,0,3,0,0,0,2,0,1,2,0,2,0,0,2,3,0,2,3,1,2,3,0,0,1,0,2,3,0,0,0,0,0,0,0,0,0,0,0,0,0,0,0,0,0,0,0,0,0,0,0,0,0,0],"split_type":[0,0,0,0,0,0,0,0,0,0,0,0,0,0,0,0,0,0,0,0,0,0,0,0,0,0,0,0,0,0,0,0,0,0,0,0,0,0,0,0,0,0,0,0,0,0,0,0,0,0,0,0,0,0,0,0,0,0,0,0,0,0,0,0,0,0,0,0,0,0,0,0,0],"sum_hessian":[9.31E2,7.17E2,2.14E2,7.14E2,3E0,8.8E1,1.26E2,7.09E2,5E0,1E0,2E0,4.2E1,4.6E1,4E0,1.22E2,6.98E2,1.1E1,3E0,2E0,1.8E1,2.4E1,2.5E1,2.1E1,2E0,2E0,1.2E1,1.1E2,6.78E2,2E1,2E0,9E0,1E0,1E0,1.2E1,6E0,1E0,2.3E1,1.8E1,7E0,1.3E1,8E0,1E0,1E0,1.1E1,1E0,8.5E1,2.5E1,6.46E2,3.2E1,1.9E1,1E0,1E0,8E0,9E0,3E0,5E0,1E0,1E0,2.2E1,6E0,1.2E1,4E0,3E0,5E0,8E0,2E0,6E0,4E0,7E0,6.9E1,1.6E1,1.5E1,1E1],"tree_param":{"num_deleted":"0","num_feature":"4","num_nodes":"73","size_leaf_vector":"1"}},{"base_weights":[5.638245E-2,7.587017E-2,-2.9638672E0,2.7783996E-1,-2.4591374E-1,-1.4441514E0,-4.893317E-1,2.0646502E-1,8.301914E0,1.8599567E0,-4.3719095E-1,3.9152405E-1,-1.3042008E0,6.26004E0,-5.6005955E-2,-4.991378E-2,1.4286594E1,-3.3037274E0,-1.9058855E-1,9.610954E-2,2.3897743E0,-3.9259403E0,1.3439612E-1,-5.717118E-1,1.195796E0,1.8843894E0,-3.526668E0,-5.1144534E-1,6.0556016E0,-4.4399133E0,4.055274E0,1.0918271E1,-3.0031037E-1,7.7172466E-2,-1.8678218E0,4.179695E0,4.8196492E-1,-1.5165863E0,-2.3511834E-1,4.005648E0,-2.657403E-1,5.25496E-1,1.2612248E-2,-1.5535791E-1,1.7199997E0,1.2297941E0,-1.4488437E0,-2.595543E0,-6.1694115E-1,1.7524878E0,-1.9556738E-1,-2.6802876E0,7.59351E0,-1.112396E0,-1.7527213E-2],"categories":[],"categories_nodes":[],"categories_segments":[],"categories_sizes":[],"default_left":[0,0,0,0,0,0,0,0,0,0,0,0,0,0,0,0,0,0,0,0,0,0,0,0,0,0,0,0,0,0,0,0,0,0,0,0,0,0,0,0,0,0,0,0,0,0,0,0,0,0,0,0,0,0,0],"id":16,"left_children":[1,3,5,7,9,-1,-1,11,13,15,17,19,21,-1,23,25,27,29,31,33,35,37,39,-1,41,43,45,-1,-1,47,49,51,53,-1,-1,-1,-1,-1,-1,-1,-1,-1,-1,-1,-1,-1,-1,-1,-1,-1,-1,-1,-1,-1,-1],"loss_changes":[5.5080322E1,6.0314636E1,6.94154E0,3.2473514E2,1.4501736E2,0E0,0E0,1.5874292E2,5.262502E2,7.127111E2,2.3193872E2,2.97878E2,2.343685E2,0E0,1.15406685E1,1.8822324E2,4.117293E2,2.3539612E2,3.7381973E2,4.5085083E2,5.6524335E2,7.4108246E1,5.64701E2,0E0,1.850328E0,1.693992E2,1.1914965E2,0E0,0E0,2.1310052E2,3.744272E1,1.0833815E3,2.4871295E2,0E0,0E0,0E0,0E0,0E0,0E0,0E0,0E0,0E0,0E0,0E0,0E0,0E0,0E0,0E0,0E0,0E0,0E0,0E0,0E0,0E0,0E0],"parents":[2147483647,0,0,1,1,2,2,3,3,4,4,7,7,8,8,9,9,10,10,11,11,12,12,14,14,15,15,16,16,17,17,18,18,19,19,20,20,21,21,22,22,24,24,25,25,26,26,29,29,30,30,31,31,32,32],"right_children":[2,4,6,8,10,-1,-1,12,14,16,18,20,22,-1,24,26,28,30,32,34,36,38,40,-1,42,44,46,-1,-1,48,50,52,54,-1,-1,-1,-1,-1,-1,-1,-1,-1,-1,-1,-1,-1,-1,-1,-1,-1,-1,-1,-1,-1,-1],"split_conditions":[3.519276E2,1.9483284E1,-9.6505E0,1.9406637E1,-5.283833E0,-1.4441514E0,-4.893317E-1,3.141314E2,1E-1,-5.7775836E0,-3.5838337E0,2.9126678E2,3.2392975E2,6.26004E0,-1.4254999E0,1.8968756E2,1.69365E2,3.0220963E2,-3.5067503E0,2.8505362E2,2.9160605E2,1.3336999E1,3.2472842E2,-5.717118E-1,3.74325E0,1.7475983E2,-1.6112997E1,-5.1144534E-1,6.0556016E0,2E-1,-4.6525826E0,2E-1,1.9930477E1,7.7172466E-2,-1.8678218E0,4.179695E0,4.8196492E-1,-1.5165863E0,-2.3511834E-1,4.005648E0,-2.657403E-1,5.25496E-1,1.2612248E-2,-1.5535791E-1,1.7199997E0,1.2297941E0,-1.4488437E0,-2.595543E0,-6.1694115E-1,1.7524878E0,-1.9556738E-1,-2.6802876E0,7.59351E0,-1.112396E0,-1.7527213E-2],"split_indices":[3,2,0,2,0,0,0,3,1,0,0,3,3,0,0,3,3,3,0,3,3,0,3,0,0,3,0,0,0,1,0,1,2,0,0,0,0,0,0,0,0,0,0,0,0,0,0,0,0,0,0,0,0,0,0],"split_type":[0,0,0,0,0,0,0,0,0,0,0,0,0,0,0,0,0,0,0,0,0,0,0,0,0,0,0,0,0,0,0,0,0,0,0,0,0,0,0,0,0,0,0,0,0,0,0,0,0,0,0,0,0,0,0],"sum_hessian":[9.31E2,9.26E2,5E0,5.69E2,3.57E2,1E0,4E0,5.65E2,4E0,2.9E1,3.28E2,5.04E2,6.1E1,1E0,3E0,2.6E1,3E0,2.5E1,3.03E2,4.4E2,6.4E1,2.1E1,4E1,1E0,2E0,1.7E1,9E0,1E0,2E0,2.2E1,3E0,2E0,3.01E2,4.3E2,1E1,3E0,6.1E1,1.5E1,6E0,2E0,3.8E1,1E0,1E0,1.1E1,6E0,1E0,8E0,7E0,1.5E1,2E0,1E0,1E0,1E0,1.9E1,2.82E2],"tree_param":{"num_deleted":"0","num_feature":"4","num_nodes":"55","size_leaf_vector":"1"}},{"base_weights":[5.8963083E-2,-2.386675E0,8.272042E-2,5.363228E-1,-4.8323374E0,5.831515E0,5.7662982E-2,1.1114826E0,-1.1820674E0,-3.8233396E-1,-2.033835E0,-7.6768744E-1,2.8443975E0,3.3528596E-1,-1.3971598E-1,-6.860593E-1,-5.1513672E-2,2.165387E0,1.3332318E-1,-1.5778986E0,-1.1853577E-2,-5.4931358E-2,3.1750202E-2,-7.9186136E-1,4.1284556E0,-1.1152287E0,6.598294E-1,-2.4439476E0,-5.864749E-2,4.0183706E0,-9.3245104E-2,-7.2200555E-1,2.102381E0,6.267664E0,7.250463E-1,-1.6992096E-2,-1.5738202E0,5.4664617E0,8.736335E-2,-2.4451633E-1,-1.3643652E0,-6.247448E-1,2.1727858E-1,-6.493859E-1,1.21777505E-2],"categories":[],"categories_nodes":[],"categories_segments":[],"categories_sizes":[],"default_left":[0,0,0,0,0,0,0,0,0,0,0,0,0,0,0,0,0,0,0,0,0,0,0,0,0,0,0,0,0,0,0,0,0,0,0,0,0,0,0,0,0,0,0,0,0],"id":17,"left_children":[1,3,5,7,9,11,13,-1,15,-1,-1,-1,-1,17,19,-1,21,23,25,27,29,-1,-1,31,33,35,37,39,41,-1,43,-1,-1,-1,-1,-1,-1,-1,-1,-1,-1,-1,-1,-1,-1],"loss_changes":[5.4348343E1,6.692969E1,1.3276598E2,3.1604109E1,2.5998001E1,1.4675685E2,5.051482E1,0E0,4.8783245E0,0E0,0E0,0E0,0E0,1.412728E2,9.909773E1,0E0,8.1495225E-2,2.2386989E2,2.2818599E2,5.774949E1,5.424689E2,0E0,0E0,2.1839066E2,6.094562E2,4.501072E2,1.5742439E3,9.225168E1,2.8444414E1,0E0,1.3703842E2,0E0,0E0,0E0,0E0,0E0,0E0,0E0,0E0,0E0,0E0,0E0,0E0,0E0,0E0],"parents":[2147483647,0,0,1,1,2,2,3,3,4,4,5,5,6,6,8,8,13,13,14,14,16,16,17,17,18,18,19,19,20,20,23,23,24,24,25,25,26,26,27,27,28,28,30,30],"right_children":[2,4,6,8,10,12,14,-1,16,-1,-1,-1,-1,18,20,-1,22,24,26,28,30,-1,-1,32,34,36,38,40,42,-1,44,-1,-1,-1,-1,-1,-1,-1,-1,-1,-1,-1,-1,-1,-1],"split_conditions":[7.729527E0,2.2405426E2,8.12197E0,-3.6338332E0,-8.956751E0,-1.3198418E1,2E-1,1.1114826E0,-1.2338331E0,-3.8233396E-1,-2.033835E0,-7.6768744E-1,2.8443975E0,1.0799999E1,1.1720751E1,-6.860593E-1,1.2095333E1,1.161865E2,-2.8046668E0,9.482833E0,1.1770403E1,-5.4931358E-2,3.1750202E-2,1.0440001E1,1.4087305E2,-4.142166E0,-2.7171667E0,-2.465083E0,1.6000001E0,4.0183706E0,3E-1,-7.2200555E-1,2.102381E0,6.267664E0,7.250463E-1,-1.6992096E-2,-1.5738202E0,5.4664617E0,8.736335E-2,-2.4451633E-1,-1.3643652E0,-6.247448E-1,2.1727858E-1,-6.493859E-1,1.21777505E-2],"split_indices":[2,3,2,0,0,0,1,0,0,0,0,0,0,2,2,0,0,3,0,0,2,0,0,2,3,0,0,0,1,0,1,0,0,0,0,0,0,0,0,0,0,0,0,0,0],"split_type":[0,0,0,0,0,0,0,0,0,0,0,0,0,0,0,0,0,0,0,0,0,0,0,0,0,0,0,0,0,0,0,0,0,0,0,0,0,0,0,0,0,0,0,0,0],"sum_hessian":[9.31E2,8E0,9.23E2,4E0,4E0,3E0,9.2E2,1E0,3E0,2E0,2E0,1E0,2E0,3.82E2,5.38E2,1E0,2E0,3.7E1,3.45E2,4.3E1,4.95E2,1E0,1E0,1.5E1,2.2E1,1.02E2,2.43E2,2.7E1,1.6E1,2E0,4.93E2,1.3E1,2E0,1E0,2.1E1,8.2E1,2E1,4E0,2.39E2,1.6E1,1.1E1,4E0,1.2E1,2.9E1,4.64E2],"tree_param":{"num_deleted":"0","num_feature":"4","num_nodes":"45","size_leaf_vector":"1"}},{"base_weights":[5.6042E-2,1.1693402E-2,9.9553156E-1,1.2383481E-1,-6.340578E-1,7.817318E-1,1.4641984E0,7.045951E-3,1.6207275E0,-1.5402852E0,1.1947237E-1,1.0807089E0,-4.0137672E-1,1.1304626E-1,-2.3046718E0,-1.643038E0,2.775258E0,-3.0781891E0,-5.689149E-1,9.647793E-1,-5.274156E-1,1.7333686E0,7.114438E-2,-1.0722686E0,1.29783E0,4.7452606E-2,1.1120916E1,-4.1810627E0,2.053855E0,-2.3240304E0,1.1836281E0,5.495567E0,-3.558444E-1,-4.3185368E0,-1.3324885E0,-1.7974718E0,1.2326927E0,1.6399483E-1,2.993007E0,-8.6043763E-1,2.109035E0,2.8532822E0,4.7553804E-2,1.3461587E0,-1.0533862E0,2.7214052E-2,-1.2812179E0,-1.4760362E-1,7.316271E-1,1.9692141E-1,-4.5012474E-2,4.954255E0,-7.5883275E-1,-1.6940299E0,-4.3095502E-1,1.9428121E0,-5.9208244E-1,9.069035E-3,-1.2280514E0,2.174201E0,-5.7297504E-1,4.6216863E-1,-3.2720524E-1,-2.0343587E0,-3.7168312E-1,2.3284808E-1,-6.660756E-1,-3.379721E-1,-1.7683805E0,1.2512281E0,-1.4458576E-1,-5.657859E-1,1.3082366E-1,3.8621154E-1,1.4409624E0,7.0610255E-1,-3.313138E-1,4.2564012E-2,1.0119536E0,1.5319883E0,4.6042928E-1,-3.540777E-1,3.7975675E-1,-1.8120919E-1,6.741122E-1,-2.7711755E-2,-5.973921E-1,-6.0565245E-1,-1.2230874E-1],"categories":[],"categories_nodes":[],"categories_segments":[],"categories_sizes":[],"default_left":[0,0,0,0,0,0,0,0,0,0,0,0,0,0,0,0,0,0,0,0,0,0,0,0,0,0,0,0,0,0,0,0,0,0,0,0,0,0,0,0,0,0,0,0,0,0,0,0,0,0,0,0,0,0,0,0,0,0,0,0,0,0,0,0,0,0,0,0,0,0,0,0,0,0,0,0,0,0,0,0,0,0,0,0,0,0,0,0,0],"id":18,"left_children":[1,3,5,7,9,11,-1,13,15,17,19,21,23,25,27,29,31,33,35,37,39,41,43,45,47,49,51,53,55,57,-1,59,61,63,65,67,69,71,73,75,77,79,81,83,85,-1,87,-1,-1,-1,-1,-1,-1,-1,-1,-1,-1,-1,-1,-1,-1,-1,-1,-1,-1,-1,-1,-1,-1,-1,-1,-1,-1,-1,-1,-1,-1,-1,-1,-1,-1,-1,-1,-1,-1,-1,-1,-1,-1],"loss_changes":[3.882018E1,6.4600685E1,3.1071503E1,1.3285207E2,9.0322815E1,1.4936386E1,0E0,1.7326074E2,2.1180632E2,8.788124E1,4.0426617E1,2.162045E1,1.1651479E1,4.875756E2,2.6211456E2,6.625482E1,3.5117578E2,4.404692E1,8.6324066E1,5.1482708E1,3.8690536E1,3.7623665E1,2.1491121E1,1.8172541E0,7.326135E0,8.103649E1,3.362518E2,8.038754E1,1.9088304E2,5.8444984E1,0E0,2.992412E2,2.9551357E1,9.019032E1,2.2315062E1,5.6580704E1,8.2614E1,1.4208617E1,2.1604362E1,3.239348E1,1.1955242E1,2.7815445E1,1.4956658E1,1.3655512E1,7.0268946E0,0E0,3.0429096E0,0E0,0E0,0E0,0E0,0E0,0E0,0E0,0E0,0E0,0E0,0E0,0E0,0E0,0E0,0E0,0E0,0E0,0E0,0E0,0E0,0E0,0E0,0E0,0E0,0E0,0E0,0E0,0E0,0E0,0E0,0E0,0E0,0E0,0E0,0E0,0E0,0E0,0E0,0E0,0E0,0E0,0E0],"parents":[2147483647,0,0,1,1,2,2,3,3,4,4,5,5,7,7,8,8,9,9,10,10,11,11,12,12,13,13,14,14,15,15,16,16,17,17,18,18,19,19,20,20,21,21,22,22,23,23,24,24,25,25,26,26,27,27,28,28,29,29,31,31,32,32,33,33,34,34,35,35,36,36,37,37,38,38,39,39,40,40,41,41,42,42,43,43,44,44,46,46],"right_children":[2,4,6,8,10,12,-1,14,16,18,20,22,24,26,28,30,32,34,36,38,40,42,44,46,48,50,52,54,56,58,-1,60,62,64,66,68,70,72,74,76,78,80,82,84,86,-1,88,-1,-1,-1,-1,-1,-1,-1,-1,-1,-1,-1,-1,-1,-1,-1,-1,-1,-1,-1,-1,-1,-1,-1,-1,-1,-1,-1,-1,-1,-1,-1,-1,-1,-1,-1,-1,-1,-1,-1,-1,-1,-1],"split_conditions":[1.7143251E1,1.3016167E1,2.4766848E1,1.1037E1,9.000001E-1,2.7499734E2,1.4641984E0,9.586999E0,1.4935662E1,1.4405751E1,1.5888214E2,1.8924501E1,3.145206E2,9.482833E0,2.0188908E1,3.4593832E2,1.1000001E0,2.873541E2,1.9589362E2,1.4218047E2,3.2472842E2,4E-1,1.6053335E1,1.7326584E1,1.7522417E1,1.3910169E1,1.8568813E1,2.0622942E2,2.2734219E1,1.3104198E1,1.1836281E0,2.9982602E2,1.4568854E2,3E-1,3.1147076E2,1.862946E2,2.736254E2,1.31224165E1,6.5999994E0,1.4000001E0,2.8999999E0,1.6743822E2,1.7673029E1,1.4847108E2,1.6088875E2,2.7214052E-2,1.7887E1,-1.4760362E-1,7.316271E-1,1.9692141E-1,-4.5012474E-2,4.954255E0,-7.5883275E-1,-1.6940299E0,-4.3095502E-1,1.9428121E0,-5.9208244E-1,9.069035E-3,-1.2280514E0,2.174201E0,-5.7297504E-1,4.6216863E-1,-3.2720524E-1,-2.0343587E0,-3.7168312E-1,2.3284808E-1,-6.660756E-1,-3.379721E-1,-1.7683805E0,1.2512281E0,-1.4458576E-1,-5.657859E-1,1.3082366E-1,3.8621154E-1,1.4409624E0,7.0610255E-1,-3.313138E-1,4.2564012E-2,1.0119536E0,1.5319883E0,4.6042928E-1,-3.540777E-1,3.7975675E-1,-1.8120919E-1,6.741122E-1,-2.7711755E-2,-5.973921E-1,-6.0565245E-1,-1.2230874E-1],"split_indices":[0,0,2,0,1,3,0,0,2,0,3,0,3,0,2,3,1,3,3,3,3,1,2,0,0,2,2,3,2,2,0,3,3,1,3,3,3,0,1,1,1,3,2,3,3,0,0,0,0,0,0,0,0,0,0,0,0,0,0,0,0,0,0,0,0,0,0,0,0,0,0,0,0,0,0,0,0,0,0,0,0,0,0,0,0,0,0,0,0],"split_type":[0,0,0,0,0,0,0,0,0,0,0,0,0,0,0,0,0,0,0,0,0,0,0,0,0,0,0,0,0,0,0,0,0,0,0,0,0,0,0,0,0,0,0,0,0,0,0,0,0,0,0,0,0,0,0,0,0,0,0,0,0,0,0,0,0,0,0,0,0,0,0,0,0,0,0,0,0,0,0,0,0,0,0,0,0,0,0,0,0],"sum_hessian":[9.31E2,8.9E2,4.1E1,7.59E2,1.31E2,4E1,1E0,7.05E2,5.4E1,5.9E1,7.2E1,3.2E1,8E0,6.75E2,3E1,1.4E1,4E1,2.2E1,3.7E1,3.1E1,4.1E1,1.9E1,1.3E1,6E0,2E0,6.72E2,3E0,2.1E1,9E0,1.3E1,1E0,2.1E1,1.9E1,1.2E1,1E1,2.2E1,1.5E1,2.3E1,8E0,3.7E1,4E0,1.1E1,8E0,6E0,7E0,1E0,5E0,1E0,1E0,1.64E2,5.08E2,2E0,1E0,1.3E1,8E0,4E0,5E0,6E0,7E0,1.7E1,4E0,5E0,1.4E1,6E0,6E0,3E0,7E0,2E1,2E0,5E0,1E1,2E0,2.1E1,5E0,3E0,2E0,3.5E1,2E0,2E0,3E0,8E0,4E0,4E0,2E0,4E0,4E0,3E0,2E0,3E0],"tree_param":{"num_deleted":"0","num_feature":"4","num_nodes":"89","size_leaf_vector":"1"}},{"base_weights":[4.726564E-2,-2.0302802E-1,2.2694753E-1,1.262116E-1,-3.0086584E0,5.0050373E0,5.3593896E-2,-1.4086059E-1,3.3264034E0,-4.8929143E0,1.9527029E0,1.1268372E1,4.12395E-1,-5.891423E0,1.10544935E-1,-1.9322759E0,1.6251129E-1,8.194746E0,-2.5467925E0,-7.049719E0,-5.266405E-1,2.0504062E-1,5.396767E0,6.6919923E0,6.495454E0,2.727828E0,-2.357676E0,-1.9728181E0,-4.7293097E-1,3.5172904E0,-1.835906E-2,-3.562796E0,-2.2124428E-1,6.8311048E0,-1.1180603E-1,1.3990459E1,-2.830567E0,-5.6933312E0,1.3146031E-1,-8.684946E0,-4.0704983E-1,1.8305234E0,-2.796031E0,2.4435482E0,-1.5259472E0,2.2556725E0,-1.454484E-1,2.5168633E0,9.964327E-1,6.104329E0,1.5636177E-1,-4.9713316E0,1.6065905E0,5.537992E0,-4.3821043E-1,-1.809251E-1,1.7249271E0,-3.427279E-1,-1.2418824E0,1.467852E-1,-1.607411E0,-1.9453907E-1,3.9516468E0,4.040296E-1,-1.8729284E-1,3.9489558E-1,5.0983367E0,-2.2580153E-1,-9.286835E-1,-1.9279093E0,-3.0422488E-1,-3.3080038E-1,7.6676905E-1,-1.2655365E0,-3.0995018E0,3.312944E-1,-3.182909E-1,1.6371204E0,4.1403295E-3,1.976698E-1,-1.0856391E0,1.5018082E-1,1.4601824E0,4.1618016E-2,2.7053301E0,-6.15466E-1,1.3482033E0,-1.6629978E0,-4.025033E-1,-1.5483222E0,1.1425741E0,4.763507E-1,-1.1000328E-1,8.3663136E-1,-9.833961E-1],"categories":[],"categories_nodes":[],"categories_segments":[],"categories_sizes":[],"default_left":[0,0,0,0,0,0,0,0,0,0,0,0,0,0,0,0,0,0,0,0,0,0,0,0,0,0,0,0,0,0,0,0,0,0,0,0,0,0,0,0,0,0,0,0,0,0,0,0,0,0,0,0,0,0,0,0,0,0,0,0,0,0,0,0,0,0,0,0,0,0,0,0,0,0,0,0,0,0,0,0,0,0,0,0,0,0,0,0,0,0,0,0,0,0,0],"id":19,"left_children":[1,3,5,7,9,11,13,15,17,19,21,23,25,27,29,31,33,35,37,39,41,43,45,47,-1,49,51,-1,-1,53,55,57,59,61,63,65,67,69,71,73,75,77,79,81,-1,-1,-1,-1,-1,83,85,87,-1,-1,89,91,93,-1,-1,-1,-1,-1,-1,-1,-1,-1,-1,-1,-1,-1,-1,-1,-1,-1,-1,-1,-1,-1,-1,-1,-1,-1,-1,-1,-1,-1,-1,-1,-1,-1,-1,-1,-1,-1,-1],"loss_changes":[4.1961136E1,3.6063235E2,4.4949826E2,2.9960733E2,3.928419E2,5.418928E2,1.7840308E2,1.763967E2,7.92874E2,2.7880334E2,7.112218E1,2.3524573E2,8.33983E1,4.4042664E0,2.2885812E2,1.3033571E2,5.0931216E2,9.9809436E2,1.1030239E2,2.137102E2,6.396078E1,1.1903529E2,5.3571686E1,1.2186432E1,0E0,5.9823433E1,1.4757738E2,0E0,0E0,1.1310994E3,1.4286183E2,2.877716E1,9.0217674E1,5.302532E2,2.0117691E2,3.5836047E2,9.744301E-1,1.4063385E1,2.675483E1,7.40979E1,6.1131997E0,3.945523E1,1.944001E1,3.05276E1,0E0,0E0,0E0,0E0,0E0,5.089022E1,5.7105507E1,2.943344E0,0E0,0E0,3.4056854E2,1.5204456E2,2.3800133E2,0E0,0E0,0E0,0E0,0E0,0E0,0E0,0E0,0E0,0E0,0E0,0E0,0E0,0E0,0E0,0E0,0E0,0E0,0E0,0E0,0E0,0E0,0E0,0E0,0E0,0E0,0E0,0E0,0E0,0E0,0E0,0E0,0E0,0E0,0E0,0E0,0E0,0E0],"parents":[2147483647,0,0,1,1,2,2,3,3,4,4,5,5,6,6,7,7,8,8,9,9,10,10,11,11,12,12,13,13,14,14,15,15,16,16,17,17,18,18,19,19,20,20,21,21,22,22,23,23,25,25,26,26,29,29,30,30,31,31,32,32,33,33,34,34,35,35,36,36,37,37,38,38,39,39,40,40,41,41,42,42,43,43,49,49,50,50,51,51,54,54,55,55,56,56],"right_children":[2,4,6,8,10,12,14,16,18,20,22,24,26,28,30,32,34,36,38,40,42,44,46,48,-1,50,52,-1,-1,54,56,58,60,62,64,66,68,70,72,74,76,78,80,82,-1,-1,-1,-1,-1,84,86,88,-1,-1,90,92,94,-1,-1,-1,-1,-1,-1,-1,-1,-1,-1,-1,-1,-1,-1,-1,-1,-1,-1,-1,-1,-1,-1,-1,-1,-1,-1,-1,-1,-1,-1,-1,-1,-1,-1,-1,-1,-1,-1],"split_conditions":[1.862946E2,1.8083615E2,1.901494E2,1.7484317E2,1.01849165E1,2.3536668E0,1.9045541E2,-7.5609164E0,9.586999E0,2.30653E1,1.7786331E1,3.2866672E-1,1.8744727E2,7E-1,1.9352406E2,1.4336861E1,-6.3088346E0,3E-1,1E-1,9E-1,1.8451585E2,1.6053335E1,1.2641168E1,-6.158833E0,6.495454E0,7.934916E0,1.8000002E0,-1.9728181E0,-4.7293097E-1,1.5986595E1,2.95551E1,1.7066448E1,1.6047444E2,1.1994634E2,-1.7046667E0,-1.5740082E1,-1.2846333E1,1.5037E1,1.4626584E1,-3.6338332E0,1.4083341E-2,2.4905132E1,-7.3400846E0,1.3570615E1,-1.5259472E0,2.2556725E0,-1.454484E-1,2.5168633E0,9.964327E-1,2.4349167E0,1.7326584E1,2.6980793E1,1.6065905E0,5.537992E0,3.495333E0,-7.8775826E0,4.995333E0,-3.427279E-1,-1.2418824E0,1.467852E-1,-1.607411E0,-1.9453907E-1,3.9516468E0,4.040296E-1,-1.8729284E-1,3.9489558E-1,5.0983367E0,-2.2580153E-1,-9.286835E-1,-1.9279093E0,-3.0422488E-1,-3.3080038E-1,7.6676905E-1,-1.2655365E0,-3.0995018E0,3.312944E-1,-3.182909E-1,1.6371204E0,4.1403295E-3,1.976698E-1,-1.0856391E0,1.5018082E-1,1.4601824E0,4.1618016E-2,2.7053301E0,-6.15466E-1,1.3482033E0,-1.6629978E0,-4.025033E-1,-1.5483222E0,1.1425741E0,4.763507E-1,-1.1000328E-1,8.3663136E-1,-9.833961E-1],"split_indices":[3,3,3,3,0,0,3,0,0,2,2,0,3,1,3,2,0,1,1,1,3,2,0,0,0,0,1,0,0,2,2,3,3,3,0,0,0,0,0,0,0,2,0,2,0,0,0,0,0,0,0,2,0,0,0,0,0,0,0,0,0,0,0,0,0,0,0,0,0,0,0,0,0,0,0,0,0,0,0,0,0,0,0,0,0,0,0,0,0,0,0,0,0,0,0],"split_type":[0,0,0,0,0,0,0,0,0,0,0,0,0,0,0,0,0,0,0,0,0,0,0,0,0,0,0,0,0,0,0,0,0,0,0,0,0,0,0,0,0,0,0,0,0,0,0,0,0,0,0,0,0,0,0,0,0,0,0,0,0,0,0,0,0,0,0,0,0,0,0,0,0,0,0,0,0,0,0,0,0,0,0,0,0,0,0,0,0,0,0,0,0,0,0],"sum_hessian":[9.31E2,3.89E2,5.42E2,3.49E2,4E1,1.8E1,5.24E2,3.23E2,2.6E1,2.9E1,1.1E1,7E0,1.1E1,4E0,5.2E2,4.6E1,2.77E2,1.4E1,1.2E1,1.9E1,1E1,8E0,3E0,6E0,1E0,6E0,5E0,3E0,1E0,1.8E1,5.02E2,2.3E1,2.3E1,1E1,2.67E2,9E0,5E0,5E0,7E0,1.5E1,4E0,5E0,5E0,6E0,2E0,2E0,1E0,3E0,3E0,2E0,4E0,4E0,1E0,3E0,1.5E1,4.6E2,4.2E1,5E0,1.8E1,2.1E1,2E0,5E0,5E0,6.9E1,1.98E2,2E0,7E0,1E0,4E0,4E0,1E0,5E0,2E0,5E0,1E1,1E0,3E0,1E0,4E0,1E0,4E0,4E0,2E0,1E0,1E0,3E0,1E0,3E0,1E0,7E0,8E0,4.3E1,4.17E2,3.5E1,7E0],"tree_param":{"num_deleted":"0","num_feature":"4","num_nodes":"95","size_leaf_vector":"1"}},{"base_weights":[5.2402116E-2,-3.677845E-1,1.7891245E-1,-7.366681E-2,-3.2464545E0,8.022073E0,5.6630015E-2,-7.1843296E-1,1.0806849E0,-1.4606662E0,-8.3116865E0,-1.1388674E0,1.5846002E1,1.4221641E0,-1.5508674E-1,9.6755457E-1,-1.755078E0,6.480534E0,1.9231108E-1,-2.5953372E0,7.7765423E-1,-3.695419E0,-1.269173E0,6.880391E-1,-3.4283988E0,1.3798428E-1,7.0996547E0,8.833578E-1,1.3459167E1,-1.6388172E0,2.5549796E-1,-7.0418847E-1,9.6232605E0,4.1669208E-1,-3.6782253E0,1.2831232E1,-2.4364102E0,1.3788213E0,-2.189867E0,8.25398E-2,-3.4069543E0,-1.3287027E0,-6.3985206E-2,9.317222E-1,-8.6962926E-1,1.5455759E0,-1.5779059E0,5.572773E0,-2.8365928E-1,-4.0369925E0,-3.666027E-1,8.879433E-1,-2.0558412E-1,-4.7450653E-1,3.3691623E0,4.699951E0,8.592046E-1,-7.394062E-1,5.524066E-1,2.5677034E-1,-1.4310757E0,1.0813743E0,4.9630237E0,-8.7395126E-1,-7.940512E-2,1.354371E-1,1.7853447E0,-8.487616E-1,1.5895352E0,1.3255895E0,-8.507104E-1,-1.990906E0,-3.2246274E-1,2.924593E-1,4.3611674E0,-2.042123E0,3.4481618E-1,-2.1692727E0,-9.834953E-1,-5.0807977E-1,9.4306454E-2,3.7154915E0,2.309147E-1,-1.5034974E0,-1.9041957E-2],"categories":[],"categories_nodes":[],"categories_segments":[],"categories_sizes":[],"default_left":[0,0,0,0,0,0,0,0,0,0,0,0,0,0,0,0,0,0,0,0,0,0,0,0,0,0,0,0,0,0,0,0,0,0,0,0,0,0,0,0,0,0,0,0,0,0,0,0,0,0,0,0,0,0,0,0,0,0,0,0,0,0,0,0,0,0,0,0,0,0,0,0,0,0,0,0,0,0,0,0,0,0,0,0,0],"id":20,"left_children":[1,3,5,7,9,11,13,15,17,19,21,23,25,27,29,31,33,35,37,39,-1,-1,-1,-1,41,43,-1,45,47,49,51,53,55,57,59,61,63,65,67,69,71,-1,-1,-1,-1,73,75,-1,-1,77,79,81,83,-1,-1,-1,-1,-1,-1,-1,-1,-1,-1,-1,-1,-1,-1,-1,-1,-1,-1,-1,-1,-1,-1,-1,-1,-1,-1,-1,-1,-1,-1,-1,-1],"loss_changes":[4.9609013E1,1.8264108E2,6.872066E2,1.4740092E2,1.6876804E2,8.064665E2,2.0461879E2,2.2366498E2,3.393467E2,8.030594E1,2.9639801E1,5.501349E1,7.3370886E2,6.042439E2,3.738565E2,7.158123E2,3.3148672E2,5.9755035E2,1.7826111E2,2.8535545E1,0E0,0E0,0E0,0E0,1.1923668E1,3.60398E1,0E0,1.5238895E2,3.1238464E2,4.043021E2,1.404466E2,4.5761758E2,2.8191296E2,1.6052818E2,2.1204114E2,1.4587384E2,4.405897E0,1.7540227E2,1.1552934E2,6.3144966E1,6.817886E1,0E0,0E0,0E0,0E0,5.270856E2,2.9305362E2,0E0,0E0,8.775946E1,8.0051674E1,2.6639838E2,1.9023769E2,0E0,0E0,0E0,0E0,0E0,0E0,0E0,0E0,0E0,0E0,0E0,0E0,0E0,0E0,0E0,0E0,0E0,0E0,0E0,0E0,0E0,0E0,0E0,0E0,0E0,0E0,0E0,0E0,0E0,0E0,0E0,0E0],"parents":[2147483647,0,0,1,1,2,2,3,3,4,4,5,5,6,6,7,7,8,8,9,9,10,10,11,11,12,12,13,13,14,14,15,15,16,16,17,17,18,18,19,19,24,24,25,25,27,27,28,28,29,29,30,30,31,31,32,32,33,33,34,34,35,35,36,36,37,37,38,38,39,39,40,40,45,45,46,46,49,49,50,50,51,51,52,52],"right_children":[2,4,6,8,10,12,14,16,18,20,22,24,26,28,30,32,34,36,38,40,-1,-1,-1,-1,42,44,-1,46,48,50,52,54,56,58,60,62,64,66,68,70,72,-1,-1,-1,-1,74,76,-1,-1,78,80,82,84,-1,-1,-1,-1,-1,-1,-1,-1,-1,-1,-1,-1,-1,-1,-1,-1,-1,-1,-1,-1,-1,-1,-1,-1,-1,-1,-1,-1,-1,-1,-1,-1],"split_conditions":[-3.6630003E0,-4.2046666E0,-3.5067503E0,1.731746E1,2.6619202E2,2E-1,1.3779529E2,1.2224107E1,1.8E1,1.9310374E2,2.919999E2,1.8903427E1,1.5484185E1,1.359474E2,1.772782E2,1.1592895E1,-8.354667E0,1E-1,-5.283833E0,8.1473175E1,7.7765423E-1,-3.695419E0,-1.269173E0,6.880391E-1,2.6525429E1,-3.6338332E0,7.0996547E0,1.1892635E2,6.015834E-1,3.7036667E0,2E-1,-4.979667E0,1.1770403E1,-1.1521333E1,4.3879227E1,-5.888E0,-5.713E0,-5.7775836E0,3.0319181E1,8E-1,1.04364586E2,-1.3287027E0,-6.3985206E-2,9.317222E-1,-8.6962926E-1,1.161865E2,4.390833E-1,5.572773E0,-2.8365928E-1,1.43149E2,1E-1,-3.360917E0,-2.3921664E0,-4.7450653E-1,3.3691623E0,4.699951E0,8.592046E-1,-7.394062E-1,5.524066E-1,2.5677034E-1,-1.4310757E0,1.0813743E0,4.9630237E0,-8.7395126E-1,-7.940512E-2,1.354371E-1,1.7853447E0,-8.487616E-1,1.5895352E0,1.3255895E0,-8.507104E-1,-1.990906E0,-3.2246274E-1,2.924593E-1,4.3611674E0,-2.042123E0,3.4481618E-1,-2.1692727E0,-9.834953E-1,-5.0807977E-1,9.4306454E-2,3.7154915E0,2.309147E-1,-1.5034974E0,-1.9041957E-2],"split_indices":[0,0,0,2,3,1,3,2,2,3,3,2,2,3,3,2,0,1,0,3,0,0,0,0,2,0,0,3,0,0,1,0,2,0,3,0,0,0,2,1,3,0,0,0,0,3,0,0,0,3,1,0,0,0,0,0,0,0,0,0,0,0,0,0,0,0,0,0,0,0,0,0,0,0,0,0,0,0,0,0,0,0,0,0,0],"split_type":[0,0,0,0,0,0,0,0,0,0,0,0,0,0,0,0,0,0,0,0,0,0,0,0,0,0,0,0,0,0,0,0,0,0,0,0,0,0,0,0,0,0,0,0,0,0,0,0,0,0,0,0,0,0,0,0,0,0,0,0,0,0,0,0,0,0,0,0,0,0,0,0,0,0,0,0,0,0,0,0,0,0,0,0,0],"sum_hessian":[9.31E2,2.15E2,7.16E2,1.96E2,1.9E1,1E1,7.06E2,1.26E2,7E1,1.5E1,4E0,5E0,5E0,9.4E1,6.12E2,4.8E1,7.8E1,9E0,6.1E1,1.2E1,3E0,1E0,3E0,2E0,3E0,2E0,3E0,9.1E1,3E0,1.32E2,4.8E2,4.1E1,7E0,3.7E1,4.1E1,5E0,4E0,4.1E1,2E1,3E0,9E0,2E0,1E0,1E0,1E0,7.2E1,1.9E1,2E0,1E0,4.5E1,8.7E1,2.02E2,2.78E2,3.9E1,2E0,3E0,4E0,1.2E1,2.5E1,8E0,3.3E1,2E0,3E0,3E0,1E0,3.5E1,6E0,1.9E1,1E0,1E0,2E0,3E0,6E0,7E1,2E0,6E0,1.3E1,7E0,3.8E1,2.9E1,5.8E1,1E0,2.01E2,7E0,2.71E2],"tree_param":{"num_deleted":"0","num_feature":"4","num_nodes":"85","size_leaf_vector":"1"}},{"base_weights":[6.0693778E-2,-2.0271082E0,8.096383E-2,3.7372476E-1,-4.0225196E0,4.826124E0,6.0267184E-2,7.919638E-1,-8.527837E-1,-3.4562045E-1,-1.6656394E0,-4.2461416E-1,2.213526E0,-7.983328E-1,1.1889654E-1,-4.370705E-1,-1.657772E-1,8.0873007E-1,-2.8691714E0,1.7302092E0,3.4358975E-2,-6.618891E-2,-8.410836E-3,3.0589542E0,-7.299304E-1,-5.7880754E0,-1.7040966E0,1.8262698E-1,5.712911E0,-1.1520867E0,1.06266834E-1,-4.1283205E-1,2.3071806E0,-4.6069935E-1,6.466654E-1,-2.0193665E0,-6.860421E-1,-6.184193E-1,7.2136976E-2,1.3327043E0,-1.2336546E-1,8.2458854E-1,4.106865E0,6.8630767E-1,-6.0809207E-1,9.861155E-1,7.88751E-3],"categories":[],"categories_nodes":[],"categories_segments":[],"categories_sizes":[],"default_left":[0,0,0,0,0,0,0,0,0,0,0,0,0,0,0,0,0,0,0,0,0,0,0,0,0,0,0,0,0,0,0,0,0,0,0,0,0,0,0,0,0,0,0,0,0,0,0],"id":21,"left_children":[1,3,5,7,9,11,13,-1,15,-1,-1,-1,-1,17,19,-1,21,23,25,27,29,-1,-1,31,33,35,37,39,41,43,45,-1,-1,-1,-1,-1,-1,-1,-1,-1,-1,-1,-1,-1,-1,-1,-1],"loss_changes":[3.960622E1,4.4619152E1,9.045414E1,1.6148533E1,1.5556946E1,7.416392E1,4.645729E1,0E0,1.4186103E0,0E0,0E0,0E0,0E0,1.9867047E2,1.1749535E2,0E0,1.6480722E-2,1.1995209E2,7.855586E1,2.639897E2,7.0165855E1,0E0,0E0,2.9816605E2,5.2133743E1,7.722458E0,1.4391483E1,8.277444E1,2.4611264E2,1.460797E2,1.9706094E2,0E0,0E0,0E0,0E0,0E0,0E0,0E0,0E0,0E0,0E0,0E0,0E0,0E0,0E0,0E0,0E0],"parents":[2147483647,0,0,1,1,2,2,3,3,4,4,5,5,6,6,8,8,13,13,14,14,16,16,17,17,18,18,19,19,20,20,23,23,24,24,25,25,26,26,27,27,28,28,29,29,30,30],"right_children":[2,4,6,8,10,12,14,-1,16,-1,-1,-1,-1,18,20,-1,22,24,26,28,30,-1,-1,32,34,36,38,40,42,44,46,-1,-1,-1,-1,-1,-1,-1,-1,-1,-1,-1,-1,-1,-1,-1,-1],"split_conditions":[7.729527E0,2.2405426E2,8.12197E0,-3.6338332E0,-8.956751E0,-1.3198418E1,6.3638924E1,7.919638E-1,-1.2338331E0,-3.4562045E-1,-1.6656394E0,-4.2461416E-1,2.213526E0,4.113635E1,9.8940834E1,-4.370705E-1,1.2095333E1,9E-1,5E-1,9.1974884E1,1.2713661E2,-6.618891E-2,-8.410836E-3,1.1212135E1,3.0758545E1,1.1928989E1,2.4349167E0,6.885191E1,1.6548256E1,1E-1,1.3779529E2,-4.1283205E-1,2.3071806E0,-4.6069935E-1,6.466654E-1,-2.0193665E0,-6.860421E-1,-6.184193E-1,7.2136976E-2,1.3327043E0,-1.2336546E-1,8.2458854E-1,4.106865E0,6.8630767E-1,-6.0809207E-1,9.861155E-1,7.88751E-3],"split_indices":[2,3,2,0,0,0,3,0,0,0,0,0,0,3,3,0,0,1,1,3,3,0,0,2,3,2,0,3,2,1,3,0,0,0,0,0,0,0,0,0,0,0,0,0,0,0,0],"split_type":[0,0,0,0,0,0,0,0,0,0,0,0,0,0,0,0,0,0,0,0,0,0,0,0,0,0,0,0,0,0,0,0,0,0,0,0,0,0,0,0,0,0,0,0,0,0,0],"sum_hessian":[9.31E2,8E0,9.23E2,4E0,4E0,3E0,9.2E2,1E0,3E0,2E0,2E0,1E0,2E0,5.8E1,8.62E2,1E0,2E0,3.3E1,2.5E1,4.2E1,8.2E2,1E0,1E0,1.3E1,2E1,6E0,1.9E1,3.1E1,1.1E1,4.6E1,7.74E2,7E0,6E0,1.6E1,4E0,4E0,2E0,1.6E1,3E0,3E0,2.8E1,9E0,2E0,9E0,3.7E1,1.8E1,7.56E2],"tree_param":{"num_deleted":"0","num_feature":"4","num_nodes":"47","size_leaf_vector":"1"}},{"base_weights":[4.903021E-2,-6.398733E-1,9.632137E-2,4.1750245E-2,-3.3698468E0,1.417568E0,3.7799932E-2,1.2380145E0,-2.5029206E0,-1.6551645E0,-2.388652E0,-1.1020598E0,4.446663E0,-1.5874414E0,8.979313E-2,2.9576039E-2,6.8724647E0,-3.029946E0,-1.6435814E-1,-4.37079E0,8.837177E-1,-2.5203202E0,1.0689895E0,6.516327E0,-1.8237951E0,-3.2698197E0,8.483093E0,1.8875899E0,2.079735E-2,-2.0035007E0,1.8066697E0,3.419038E0,2.7558637E0,-1.2387094E0,-4.3883333E0,2.579401E-1,-2.3770332E-1,-6.980353E-2,-1.6041446E0,9.525036E-1,-1.0556824E0,-3.474088E0,1.3387339E0,3.1464937E0,-4.941782E-1,1.5850703E-1,1.0470151E1,-1.0768347E0,5.497901E-1,6.7267245E-1,-3.622288E0,1.4091683E-2,1.1279477E1,4.8849276E-1,1.0859598E1,-2.5276108E0,1.1166422E-1,-4.0550134E-1,-1.5715929E0,3.6335304E-1,1.6108595E0,1.1933877E0,2.613413E-1,-5.4931223E-1,4.8423767E-2,-1.6158134E0,-6.8806165E-1,-6.51056E-1,1.1764335E-2,-1.1815555E0,2.4519697E-1,1.272042E0,-2.0166779E-2,6.502694E-1,-4.3801194E-1,1.9811343E0,-7.353912E-1,4.1795206E0,1.0576904E0,7.43422E-1,-4.960164E-1,-1.6785939E0,-5.4778177E-1,4.0321636E0,1.0436014E0,1.0660052E0,-1.0916077E0,4.5254025E0,-2.723443E-1,-9.879714E-1,1.4085457E0,1.5260458E0,1.7534107E-2],"categories":[],"categories_nodes":[],"categories_segments":[],"categories_sizes":[],"default_left":[0,0,0,0,0,0,0,0,0,0,0,0,0,0,0,0,0,0,0,0,0,0,0,0,0,0,0,0,0,0,0,0,0,0,0,0,0,0,0,0,0,0,0,0,0,0,0,0,0,0,0,0,0,0,0,0,0,0,0,0,0,0,0,0,0,0,0,0,0,0,0,0,0,0,0,0,0,0,0,0,0,0,0,0,0,0,0,0,0,0,0,0,0],"id":22,"left_children":[1,3,5,7,9,11,13,15,17,19,-1,21,23,25,27,29,31,33,35,37,39,41,43,45,47,49,51,53,55,57,59,61,-1,63,65,-1,-1,-1,-1,-1,67,69,-1,71,73,75,77,-1,79,-1,81,-1,83,85,87,89,91,-1,-1,-1,-1,-1,-1,-1,-1,-1,-1,-1,-1,-1,-1,-1,-1,-1,-1,-1,-1,-1,-1,-1,-1,-1,-1,-1,-1,-1,-1,-1,-1,-1,-1,-1,-1],"loss_changes":[3.0425306E1,1.1178956E2,6.7447876E1,1.5225949E2,8.131386E1,2.872916E2,7.087029E1,2.3129886E2,1.922171E1,7.280908E1,0E0,6.735557E1,2.3250604E2,4.6824188E2,1.0068154E2,1.0839573E2,1.653415E1,2.619564E1,3.253888E0,1.8957237E1,3.0014225E1,1.02082115E2,3.0782312E1,3.251305E2,2.2928087E1,5.2807068E1,9.38327E1,3.712765E2,1.8159833E2,2.2441738E1,2.7443089E1,2.2309494E0,0E0,6.1009054E0,2.276886E0,0E0,0E0,0E0,0E0,0E0,4.966171E0,2.7135788E1,0E0,1.4343708E1,1.858998E1,1.1711355E2,1.4319397E2,0E0,1.684227E1,0E0,6.775662E1,0E0,3.8189392E0,3.544589E2,2.1256693E2,1.6477072E2,2.001289E2,0E0,0E0,0E0,0E0,0E0,0E0,0E0,0E0,0E0,0E0,0E0,0E0,0E0,0E0,0E0,0E0,0E0,0E0,0E0,0E0,0E0,0E0,0E0,0E0,0E0,0E0,0E0,0E0,0E0,0E0,0E0,0E0,0E0,0E0,0E0,0E0],"parents":[2147483647,0,0,1,1,2,2,3,3,4,4,5,5,6,6,7,7,8,8,9,9,11,11,12,12,13,13,14,14,15,15,16,16,17,17,18,18,19,19,20,20,21,21,22,22,23,23,24,24,25,25,26,26,27,27,28,28,29,29,30,30,31,31,33,33,34,34,40,40,41,41,43,43,44,44,45,45,46,46,48,48,50,50,52,52,53,53,54,54,55,55,56,56],"right_children":[2,4,6,8,10,12,14,16,18,20,-1,22,24,26,28,30,32,34,36,38,40,42,44,46,48,50,52,54,56,58,60,62,-1,64,66,-1,-1,-1,-1,-1,68,70,-1,72,74,76,78,-1,80,-1,82,-1,84,86,88,90,92,-1,-1,-1,-1,-1,-1,-1,-1,-1,-1,-1,-1,-1,-1,-1,-1,-1,-1,-1,-1,-1,-1,-1,-1,-1,-1,-1,-1,-1,-1,-1,-1,-1,-1,-1,-1],"split_conditions":[-9.6505E0,-1.0188001E1,-7.8775826E0,2.736254E2,1.967195E1,1.837285E2,-6.8650837E0,2.041653E2,3.3377188E2,1.0990322E1,-2.388652E0,-8.45675E0,1.3854155E1,2E0,-5.713E0,1.3979872E1,-1.103175E1,1.2224107E1,-1.3198418E1,8.587338E0,1E-1,2.1573734E1,7E-1,1.1113451E1,-8.704667E0,8.587338E0,-7.7296677E0,-5.7775836E0,-4.979667E0,1.8571848E2,2.0969805E1,-1.3029667E1,2.7558637E0,-1.1967167E1,-1.1521333E1,2.579401E-1,-2.3770332E-1,-6.980353E-2,-1.6041446E0,9.525036E-1,-1.0035917E1,2.8999996E0,1.3387339E0,-8.354667E0,2.452086E1,-9.398417E0,3.101051E2,-1.0768347E0,-8.642166E0,6.7267245E-1,1.4336861E1,1.4091683E-2,-7.3400846E0,2.3031992E2,1E-1,2.970141E2,-4.740083E0,-4.0550134E-1,-1.5715929E0,3.6335304E-1,1.6108595E0,1.1933877E0,2.613413E-1,-5.4931223E-1,4.8423767E-2,-1.6158134E0,-6.8806165E-1,-6.51056E-1,1.1764335E-2,-1.1815555E0,2.4519697E-1,1.272042E0,-2.0166779E-2,6.502694E-1,-4.3801194E-1,1.9811343E0,-7.353912E-1,4.1795206E0,1.0576904E0,7.43422E-1,-4.960164E-1,-1.6785939E0,-5.4778177E-1,4.0321636E0,1.0436014E0,1.0660052E0,-1.0916077E0,4.5254025E0,-2.723443E-1,-9.879714E-1,1.4085457E0,1.5260458E0,1.7534107E-2],"split_indices":[0,0,0,3,2,3,0,3,3,2,0,0,2,1,0,2,0,2,0,2,1,2,1,2,0,2,0,0,0,3,2,0,0,0,0,0,0,0,0,0,0,1,0,0,3,0,3,0,0,0,2,0,0,3,1,3,0,0,0,0,0,0,0,0,0,0,0,0,0,0,0,0,0,0,0,0,0,0,0,0,0,0,0,0,0,0,0,0,0,0,0,0,0],"split_type":[0,0,0,0,0,0,0,0,0,0,0,0,0,0,0,0,0,0,0,0,0,0,0,0,0,0,0,0,0,0,0,0,0,0,0,0,0,0,0,0,0,0,0,0,0,0,0,0,0,0,0,0,0,0,0,0,0,0,0,0,0,0,0,0,0,0,0,0,0,0,0,0,0,0,0,0,0,0,0,0,0,0,0,0,0,0,0,0,0,0,0,0,0],"sum_hessian":[9.31E2,5.9E1,8.72E2,4.8E1,1.1E1,3.6E1,8.36E2,3.3E1,1.5E1,9E0,2E0,2E1,1.6E1,2.5E1,8.11E2,2.8E1,5E0,1.2E1,3E0,4E0,5E0,1.2E1,8E0,1.2E1,4E0,2.2E1,3E0,2.9E1,7.82E2,1.3E1,1.5E1,3E0,2E0,6E0,6E0,1E0,2E0,1E0,3E0,2E0,3E0,1.1E1,1E0,3E0,5E0,5E0,7E0,2E0,2E0,1E0,2.1E1,1E0,2E0,2.6E1,3E0,2.6E1,7.56E2,1.2E1,1E0,1.4E1,1E0,2E0,1E0,4E0,2E0,3E0,3E0,1E0,2E0,1E1,1E0,2E0,1E0,1E0,4E0,1E0,4E0,4E0,3E0,1E0,1E0,9E0,1.2E1,1E0,1E0,1.5E1,1.1E1,2E0,1E0,2.4E1,2E0,7E0,7.49E2],"tree_param":{"num_deleted":"0","num_feature":"4","num_nodes":"93","size_leaf_vector":"1"}},{"base_weights":[5.033148E-2,-2.5171342E0,6.411057E-2,-1.4931858E0,-6.577748E-1,5.1507406E0,3.6516134E-2,-2.6559386E-1,-2.7514768E-1,4.257524E0,-6.574478E-1,-1.0008111E-1,2.885833E-1,-1.7676431E-1,5.724707E-2,-2.792554E-1,-2.6880378E-1,4.8686236E-2,-2.1295843E0,2.8940244E0,-4.5983836E-2,-1.5686117E-1,3.1196238E-2,9.412923E-2,-1.5042934E0,-2.3072903E0,-1.3204896E0,1.2609596E0,8.656264E0,-4.2607937E0,7.37483E-2,3.954002E-3,9.038457E-1,-5.4127514E-1,9.364795E-1,6.64636E-1,-1.1863799E0,-1.0121418E0,4.9647202E0,-2.2940649E-1,-1.8616557E0,-3.8757373E-2,6.4954036E-1],"categories":[],"categories_nodes":[],"categories_segments":[],"categories_sizes":[],"default_left":[0,0,0,0,0,0,0,0,0,0,0,0,0,0,0,0,0,0,0,0,0,0,0,0,0,0,0,0,0,0,0,0,0,0,0,0,0,0,0,0,0,0,0],"id":23,"left_children":[1,3,5,-1,7,9,11,13,-1,-1,15,17,19,-1,-1,21,-1,23,25,27,29,-1,-1,31,-1,-1,33,35,37,39,41,-1,-1,-1,-1,-1,-1,-1,-1,-1,-1,-1,-1],"loss_changes":[3.3133057E1,1.9597599E1,1.3006848E2,0E0,1.6331017E-1,2.7188965E2,3.1843752E1,5.5555403E-1,0E0,0E0,1.1067724E-1,1.8125795E2,2.8343393E2,0E0,0E0,3.3446324E-1,0E0,1.2931554E2,1.7433128E2,3.3725888E2,1.4615753E2,0E0,0E0,1.3132399E2,0E0,0E0,8.5141716E1,1.5810779E2,8.1544116E2,4.9646423E1,1.1996754E2,0E0,0E0,0E0,0E0,0E0,0E0,0E0,0E0,0E0,0E0,0E0,0E0],"parents":[2147483647,0,0,1,1,2,2,4,4,5,5,6,6,7,7,10,10,11,11,12,12,15,15,17,17,18,18,19,19,20,20,23,23,26,26,27,27,28,28,29,29,30,30],"right_children":[2,4,6,-1,8,10,12,14,-1,-1,16,18,20,-1,-1,22,-1,24,26,28,30,-1,-1,32,-1,-1,34,36,38,40,42,-1,-1,-1,-1,-1,-1,-1,-1,-1,-1,-1,-1],"split_conditions":[7.990342E0,1E-1,1.138914E1,-1.4931858E0,-5.7775836E0,9E-1,2.705388E2,-7.7296677E0,-2.7514768E-1,4.257524E0,8.416166E0,2.5219048E2,2.8168765E2,-1.7676431E-1,5.724707E-2,-9.467167E0,-2.6880378E-1,3.5208294E1,1.4618837E1,2.8008054E2,2.8407422E2,-1.5686117E-1,3.1196238E-2,2.4506735E2,-1.5042934E0,